{"type":"LSTM","options":{"inputSize":28,"inputRange":28,"hiddenLayers":[20,20],"outputSize":28,"decayRate":0.999,"smoothEps":1e-8,"regc":0.000001,"clipval":5,"maxPredictionLength":100,"dataFormatter":{"indexTable":{"J":0,"a":1,"n":2,"e":3," ":4,"s":5,"w":6,"D":7,"o":8,"u":9,"g":10,".":11,"S":12,"p":13,"t":14,"d":15,"l":16,"k":17,"i":18,"c":19,"h":20,"r":21,"I":22,"v":23,"f":24,",":25,"y":26,"m":27},"characterTable":{"0":"J","1":"a","2":"n","3":"e","4":" ","5":"s","6":"w","7":"D","8":"o","9":"u","10":"g","11":".","12":"S","13":"p","14":"t","15":"d","16":"l","17":"k","18":"i","19":"c","20":"h","21":"r","22":"I","23":"v","24":"f","25":",","26":"y","27":"m"},"values":["Jane saw Doug.","Doug saw Jane.","Spot saw Doug and Jane looking at each other.","It was love at first sight, and Spot had a frontrow seat. It was a very special moment for all."],"characters":["J","a","n","e"," ","s","w","D","o","u","g",".","S","p","t","d","l","k","i","c","h","r","I","v","f",",","y","m"],"specialIndexes":[]}},"input":{"rows":29,"columns":28,"weights":{"0":-1.4931116104125977,"1":0.9557058215141296,"2":1.6168022155761719,"3":1.2858662605285645,"4":2.893388509750366,"5":-2.7298107147216797,"6":-1.608863115310669,"7":-0.04150204733014107,"8":2.7587966918945312,"9":-1.2356408834457397,"10":-2.4081103801727295,"11":0.8709890246391296,"12":-0.8214569687843323,"13":0.4349975883960724,"14":0.6034370064735413,"15":-2.1356146335601807,"16":-1.1207690238952637,"17":-0.22549091279506683,"18":0.6675544381141663,"19":2.286304473876953,"20":0.9999438524246216,"21":-0.8319976925849915,"22":0.5551486015319824,"23":0.31421199440956116,"24":-0.9980400800704956,"25":3.4855215549468994,"26":2.0969579219818115,"27":-3.463088274002075,"28":2.1441423892974854,"29":0.7506462931632996,"30":-0.9125949144363403,"31":-0.16609534621238708,"32":-5.671167850494385,"33":2.191150188446045,"34":0.284162700176239,"35":1.0690593719482422,"36":0.04902159795165062,"37":1.5742778778076172,"38":0.22640448808670044,"39":0.5411205291748047,"40":2.2226548194885254,"41":-4.046638488769531,"42":-1.785723328590393,"43":4.40491247177124,"44":3.1883511543273926,"45":-1.8130234479904175,"46":-2.3296260833740234,"47":0.33588841557502747,"48":1.863301396369934,"49":1.4491264820098877,"50":-3.782317638397217,"51":1.4267460107803345,"52":2.2758736610412598,"53":-1.470866084098816,"54":-4.871038436889648,"55":1.7054389715194702,"56":0.967022180557251,"57":-2.3280251026153564,"58":-3.44875431060791,"59":-0.8410452008247375,"60":3.6838951110839844,"61":-0.486693412065506,"62":-2.3598461151123047,"63":-1.798267126083374,"64":-1.1819437742233276,"65":1.6322015523910522,"66":-1.3435897827148438,"67":1.3782917261123657,"68":1.176802396774292,"69":-3.1975016593933105,"70":-2.1361405849456787,"71":1.9707716703414917,"72":0.4946536719799042,"73":-4.7595601081848145,"74":0.6718260645866394,"75":1.3117115497589111,"76":-0.8172634840011597,"77":1.1726748943328857,"78":-1.1396406888961792,"79":-4.916379451751709,"80":2.758896589279175,"81":-2.467966079711914,"82":1.803643822669983,"83":-3.3262784481048584,"84":5.204998016357422,"85":0.09380435198545456,"86":0.3078174591064453,"87":-5.451094627380371,"88":-1.1794579029083252,"89":4.6858744621276855,"90":1.2704060077667236,"91":4.328448295593262,"92":0.6394007802009583,"93":0.22099925577640533,"94":-0.3401264250278473,"95":-0.13892395794391632,"96":4.2750935554504395,"97":-0.864595353603363,"98":-1.9951088428497314,"99":-0.8948205709457397,"100":4.420838356018066,"101":-2.057755947113037,"102":0.6636598706245422,"103":1.4168888330459595,"104":2.757138252258301,"105":3.5315487384796143,"106":-0.11117208749055862,"107":2.8564906120300293,"108":4.520857810974121,"109":-0.08637788891792297,"110":1.7945736646652222,"111":0.5550981760025024,"112":0.6431918144226074,"113":2.7496631145477295,"114":1.3560031652450562,"115":1.0164819955825806,"116":0.13169308006763458,"117":1.1600602865219116,"118":-2.9895572662353516,"119":0.8167622685432434,"120":1.1955868005752563,"121":1.3057717084884644,"122":-1.9165220260620117,"123":2.715099334716797,"124":-1.632768154144287,"125":-3.0199103355407715,"126":-0.6535024642944336,"127":-2.767392158508301,"128":-0.838896632194519,"129":-0.011908330954611301,"130":-0.024127591401338577,"131":3.468724250793457,"132":3.982496500015259,"133":-0.18887805938720703,"134":0.9388816356658936,"135":-0.700380802154541,"136":1.847043752670288,"137":1.3652241230010986,"138":3.74544095993042,"139":0.5493490695953369,"140":0.3332841396331787,"141":0.831142246723175,"142":3.7567107677459717,"143":-1.0576623678207397,"144":3.5961413383483887,"145":-0.8604943156242371,"146":-0.14894366264343262,"147":0.3851001560688019,"148":3.8853583335876465,"149":1.2171239852905273,"150":-2.060777187347412,"151":2.738734722137451,"152":1.3752192258834839,"153":2.057345390319824,"154":-0.5829175710678101,"155":-0.25237804651260376,"156":-1.284813642501831,"157":-3.3707149028778076,"158":2.903751850128174,"159":2.4032368659973145,"160":-0.9460676908493042,"161":1.254835605621338,"162":0.878873884677887,"163":1.6088602542877197,"164":-0.827575147151947,"165":1.0900042057037354,"166":-0.051021166145801544,"167":-2.7271602153778076,"168":-2.0554938316345215,"169":2.4444868564605713,"170":1.2760637998580933,"171":2.1928627490997314,"172":1.0142827033996582,"173":-0.9163495898246765,"174":-1.065610408782959,"175":-0.0735420361161232,"176":1.2189468145370483,"177":-1.6583160161972046,"178":0.0528392493724823,"179":-0.3586166799068451,"180":-1.1284923553466797,"181":3.1141932010650635,"182":3.861854314804077,"183":-5.084272861480713,"184":0.4836021661758423,"185":0.13941790163516998,"186":-0.6753005981445312,"187":2.11519193649292,"188":0.9590887427330017,"189":-0.40401867032051086,"190":2.5556459426879883,"191":1.8473758697509766,"192":-1.5402607917785645,"193":2.722916603088379,"194":1.6355855464935303,"195":-0.2711803615093231,"196":4.401961326599121,"197":1.7036885023117065,"198":-4.0228352546691895,"199":1.4915629625320435,"200":-1.2455530166625977,"201":4.436666965484619,"202":1.8456588983535767,"203":1.3659838438034058,"204":1.4575212001800537,"205":2.922211170196533,"206":-0.8330707550048828,"207":1.7318190336227417,"208":-0.8543495535850525,"209":-6.82220983505249,"210":1.0530098676681519,"211":-3.3686764240264893,"212":-1.571433663368225,"213":2.429800510406494,"214":-1.9185481071472168,"215":0.13627508282661438,"216":0.7687707543373108,"217":-0.47156623005867004,"218":-3.2584996223449707,"219":-5.167375564575195,"220":0.17217279970645905,"221":-0.66286301612854,"222":-0.31529274582862854,"223":0.8033373355865479,"224":-4.677335262298584,"225":0.9912979602813721,"226":-0.8060495257377625,"227":1.9485604763031006,"228":-0.05531665310263634,"229":-5.100581645965576,"230":-2.0766711235046387,"231":-3.1557226181030273,"232":-0.35844752192497253,"233":-3.9115023612976074,"234":-0.22767367959022522,"235":1.234142780303955,"236":-4.129139423370361,"237":-0.5014151930809021,"238":1.8175591230392456,"239":-2.033790111541748,"240":-1.2909313440322876,"241":-0.6415631771087646,"242":5.816657066345215,"243":2.545581340789795,"244":-3.1062064170837402,"245":-2.542393922805786,"246":-0.055290382355451584,"247":2.7644360065460205,"248":0.3190663158893585,"249":1.919240951538086,"250":0.33985403180122375,"251":-1.6750903129577637,"252":-1.2347623109817505,"253":1.366855263710022,"254":-0.9344128966331482,"255":3.2015137672424316,"256":1.5254379510879517,"257":-2.953550338745117,"258":-1.4504643678665161,"259":-2.200951337814331,"260":-0.3937842845916748,"261":-2.165036201477051,"262":-0.267767071723938,"263":-1.0115967988967896,"264":-2.311030149459839,"265":2.730698823928833,"266":1.981687307357788,"267":-1.9650514125823975,"268":-2.3763701915740967,"269":-0.37030231952667236,"270":1.1735934019088745,"271":0.05698888376355171,"272":-0.9234416484832764,"273":-1.8743699789047241,"274":1.1412729024887085,"275":-0.5113712549209595,"276":-3.3020546436309814,"277":0.6410953998565674,"278":0.5821587443351746,"279":-2.0459158420562744,"280":-2.9212253093719482,"281":0.7746835947036743,"282":2.343351125717163,"283":3.1569063663482666,"284":-2.0483832359313965,"285":-4.346810340881348,"286":-0.1800176352262497,"287":-2.4004108905792236,"288":0.9395505785942078,"289":-1.763586401939392,"290":-0.2561836242675781,"291":1.4338451623916626,"292":-0.7509727478027344,"293":3.1468913555145264,"294":4.822084426879883,"295":-0.32665979862213135,"296":-1.890627384185791,"297":1.9033808708190918,"298":0.7606545686721802,"299":-2.5575673580169678,"300":-3.8187527656555176,"301":0.20145870745182037,"302":1.9518457651138306,"303":4.781201362609863,"304":-6.481403827667236,"305":1.4350279569625854,"306":-1.5576324462890625,"307":2.7706992626190186,"308":1.309561014175415,"309":4.225448131561279,"310":5.59418249130249,"311":-2.790107011795044,"312":0.9612709283828735,"313":-0.7194433212280273,"314":-2.8203916549682617,"315":2.484591245651245,"316":3.1593096256256104,"317":-0.07154805958271027,"318":-1.8841447830200195,"319":2.8864567279815674,"320":-2.3704042434692383,"321":0.6272200345993042,"322":-0.5057979226112366,"323":0.2138855904340744,"324":-0.1213299110531807,"325":-0.44223877787590027,"326":3.3563449382781982,"327":3.5438969135284424,"328":0.22422434389591217,"329":2.834195613861084,"330":5.114398956298828,"331":2.2578976154327393,"332":-0.6125426292419434,"333":3.6689891815185547,"334":4.511839866638184,"335":-1.159597396850586,"336":-1.694865345954895,"337":1.3777145147323608,"338":0.8613090515136719,"339":2.4339115619659424,"340":3.1762301921844482,"341":-0.22717618942260742,"342":-2.592933177947998,"343":-3.3921756744384766,"344":0.6398391127586365,"345":-2.1072757244110107,"346":0.9297779202461243,"347":0.31291624903678894,"348":-1.0838059186935425,"349":-1.37306809425354,"350":0.3230944275856018,"351":-1.9722213745117188,"352":0.7140710949897766,"353":-0.4105350375175476,"354":1.522775411605835,"355":2.5340518951416016,"356":-0.004721462726593018,"357":-2.774268627166748,"358":1.9505692720413208,"359":2.764659881591797,"360":0.3770410418510437,"361":3.1746315956115723,"362":0.34443339705467224,"363":-4.124368667602539,"364":2.48747181892395,"365":-0.5018962025642395,"366":5.655973434448242,"367":-2.989133596420288,"368":-3.064012289047241,"369":1.1428414583206177,"370":0.027252614498138428,"371":7.193426132202148,"372":0.8310520052909851,"373":-0.02346690557897091,"374":0.8659706711769104,"375":-1.9507296085357666,"376":1.1960173845291138,"377":-1.7351514101028442,"378":-3.4184625148773193,"379":-2.4338772296905518,"380":3.5300979614257812,"381":2.3030054569244385,"382":-2.0017642974853516,"383":-1.025559902191162,"384":1.428800344467163,"385":4.617276668548584,"386":4.635487079620361,"387":1.4463295936584473,"388":-0.934639573097229,"389":0.6689353585243225,"390":-1.355007529258728,"391":0.9943457841873169,"392":-3.2073776721954346,"393":-1.5936708450317383,"394":-2.1623032093048096,"395":-1.3765032291412354,"396":0.3978607654571533,"397":-3.2664718627929688,"398":0.8138455152511597,"399":-1.3384705781936646,"400":-0.9150521755218506,"401":-3.171315908432007,"402":-0.48561570048332214,"403":0.2846105396747589,"404":-0.3579806387424469,"405":1.078969120979309,"406":2.133446455001831,"407":2.00403094291687,"408":-1.5062676668167114,"409":-1.1872183084487915,"410":0.12720254063606262,"411":-2.1275200843811035,"412":-2.4099297523498535,"413":0.052272163331508636,"414":-1.7582447528839111,"415":0.6314350366592407,"416":1.7622953653335571,"417":-0.9164687395095825,"418":-1.7764816284179688,"419":-1.0223524570465088,"420":0.010331543162465096,"421":0.6330201029777527,"422":4.241377830505371,"423":-0.7553908228874207,"424":0.15414883196353912,"425":0.6196874380111694,"426":1.0182874202728271,"427":-3.2053768634796143,"428":6.927306175231934,"429":-1.1263542175292969,"430":-4.450605392456055,"431":3.7681984901428223,"432":1.3687951564788818,"433":2.6255948543548584,"434":1.6597297191619873,"435":-5.066497802734375,"436":2.007195472717285,"437":1.2996693849563599,"438":-1.2630443572998047,"439":0.09237200021743774,"440":5.521177768707275,"441":-0.6784679293632507,"442":1.2566603422164917,"443":2.780219078063965,"444":-2.9433541297912598,"445":3.02101731300354,"446":2.582582950592041,"447":-4.000057220458984,"448":3.352627992630005,"449":0.9950146675109863,"450":0.43062618374824524,"451":-3.6661336421966553,"452":0.2789965867996216,"453":3.7177231311798096,"454":1.936060905456543,"455":5.6103668212890625,"456":-0.9142962694168091,"457":3.349548101425171,"458":-0.9548424482345581,"459":1.7571412324905396,"460":2.8873021602630615,"461":-3.4851233959198,"462":-3.1660401821136475,"463":1.6366440057754517,"464":1.7487342357635498,"465":-0.7760205268859863,"466":0.8609800934791565,"467":2.4275248050689697,"468":0.34194865822792053,"469":6.184773921966553,"470":0.3625966012477875,"471":-1.1560425758361816,"472":1.3459699153900146,"473":-1.8035908937454224,"474":-0.17183516919612885,"475":0.8093749284744263,"476":2.183154582977295,"477":-3.9432289600372314,"478":-5.880479335784912,"479":-0.42738813161849976,"480":-6.667304039001465,"481":0.8831046223640442,"482":1.7945598363876343,"483":2.8857524394989014,"484":-4.338700771331787,"485":0.32499250769615173,"486":3.1199607849121094,"487":-1.292588472366333,"488":1.7581878900527954,"489":-0.397906631231308,"490":-2.0053462982177734,"491":2.380065679550171,"492":1.1855829954147339,"493":0.5525791049003601,"494":-2.2707691192626953,"495":-5.3017449378967285,"496":-6.471123695373535,"497":2.761542797088623,"498":-3.047203302383423,"499":-0.35785314440727234,"500":-0.9389955401420593,"501":-5.102972507476807,"502":-6.140772342681885,"503":7.587760925292969,"504":-1.946457862854004,"505":0.6324058175086975,"506":2.111825942993164,"507":-3.6739375591278076,"508":4.790294647216797,"509":-1.199476957321167,"510":-4.397373676300049,"511":-1.0093441009521484,"512":0.06843425333499908,"513":1.837156891822815,"514":0.8715241551399231,"515":0.2131236344575882,"516":3.673086166381836,"517":-1.6914902925491333,"518":1.0202094316482544,"519":-1.5992106199264526,"520":3.540727376937866,"521":1.7230662107467651,"522":3.275108814239502,"523":2.2831687927246094,"524":1.6130571365356445,"525":-2.362032890319824,"526":3.454399824142456,"527":4.269159317016602,"528":1.9799212217330933,"529":6.31431245803833,"530":7.145297527313232,"531":-3.6681649684906006,"532":-2.0689444541931152,"533":-3.996670722961426,"534":3.8025107383728027,"535":0.2911449372768402,"536":1.5268112421035767,"537":-0.6219112277030945,"538":-0.00976939033716917,"539":-4.935738563537598,"540":2.602747917175293,"541":-7.694826126098633,"542":1.0261300802230835,"543":-0.5602493286132812,"544":2.7813541889190674,"545":8.946131706237793,"546":3.774845600128174,"547":1.317457914352417,"548":1.6803160905838013,"549":5.324718952178955,"550":5.0980048179626465,"551":-1.220129370689392,"552":0.548507034778595,"553":-2.1006085872650146,"554":-1.3041542768478394,"555":1.7060123682022095,"556":-2.851517677307129,"557":-1.5841447114944458,"558":-3.4860923290252686,"559":1.2436703443527222,"560":3.480879545211792,"561":0.24881207942962646,"562":4.330591678619385,"563":-1.582466959953308,"564":-1.3326371908187866,"565":3.996603012084961,"566":-1.2822965383529663,"567":3.9229512214660645,"568":3.7368500232696533,"569":0.4394640326499939,"570":-2.826192855834961,"571":1.4348963499069214,"572":1.9777706861495972,"573":-6.1343488693237305,"574":1.1265358924865723,"575":0.5026408433914185,"576":-1.2935234308242798,"577":-2.224271535873413,"578":-3.7323246002197266,"579":2.2176146507263184,"580":2.9667413234710693,"581":3.310015916824341,"582":0.6841285228729248,"583":-0.25866350531578064,"584":5.312270641326904,"585":-0.7585603594779968,"586":3.291180372238159,"587":0.7674453258514404,"588":-1.891992449760437,"589":-2.916309118270874,"590":1.4476141929626465,"591":2.6576385498046875,"592":3.963131904602051,"593":-3.620039939880371,"594":2.5100748538970947,"595":-0.08517200499773026,"596":0.288417249917984,"597":-3.291538953781128,"598":1.844835638999939,"599":-2.518325090408325,"600":1.2837632894515991,"601":2.4471757411956787,"602":-1.267223596572876,"603":0.3161819875240326,"604":-1.4859048128128052,"605":2.4384138584136963,"606":0.917489767074585,"607":-1.5283174514770508,"608":-0.1539163440465927,"609":-1.4976938962936401,"610":0.40766429901123047,"611":1.8149749040603638,"612":-0.28139838576316833,"613":-1.7445025444030762,"614":-2.7735257148742676,"615":-5.096316814422607,"616":0.12130586802959442,"617":4.814891815185547,"618":0.5193465948104858,"619":-0.014437209814786911,"620":3.359907865524292,"621":-2.3056211471557617,"622":3.389409303665161,"623":-2.6476378440856934,"624":1.6970202922821045,"625":1.4703747034072876,"626":5.930666923522949,"627":-0.3556690812110901,"628":0.34794214367866516,"629":-0.6124542355537415,"630":3.6336658000946045,"631":0.6268665790557861,"632":-2.49519681930542,"633":-6.6906208992004395,"634":-0.1513260453939438,"635":5.034460544586182,"636":3.4591569900512695,"637":-0.40981096029281616,"638":1.717491865158081,"639":0.7409005761146545,"640":-1.6489590406417847,"641":0.46040013432502747,"642":-2.987290620803833,"643":-2.502612590789795,"644":-6.267355918884277,"645":1.2913931608200073,"646":0.46109044551849365,"647":0.16134366393089294,"648":-4.862524509429932,"649":-6.705665588378906,"650":3.0879623889923096,"651":7.179220199584961,"652":-4.908565521240234,"653":-6.3650054931640625,"654":10.458229064941406,"655":-12.03204345703125,"656":-2.1505517959594727,"657":8.186202049255371,"658":2.537177085876465,"659":2.2067654132843018,"660":1.29165518283844,"661":8.551060676574707,"662":0.72711580991745,"663":1.7252790927886963,"664":-12.23357105255127,"665":3.3493051528930664,"666":0.7982757091522217,"667":0.8720889091491699,"668":1.2790311574935913,"669":3.706136465072632,"670":0.6878798007965088,"671":2.7629384994506836,"672":9.221319198608398,"673":-3.9343273639678955,"674":-1.1367212533950806,"675":-9.175749778747559,"676":-8.596589088439941,"677":10.869269371032715,"678":-0.06774219870567322,"679":0.8191299438476562,"680":2.2812392711639404,"681":12.436705589294434,"682":-1.652791976928711,"683":0.15438470244407654,"684":4.852320194244385,"685":-10.34075927734375,"686":-1.8251854181289673,"687":4.399154186248779,"688":7.7250566482543945,"689":-1.0846753120422363,"690":-8.265992164611816,"691":-1.4267537593841553,"692":3.4960551261901855,"693":-0.37642624974250793,"694":-0.7133268713951111,"695":-2.355149507522583,"696":8.339997291564941,"697":0.5574207901954651,"698":-0.4116347134113312,"699":6.290751934051514,"700":0.5086065530776978,"701":-2.5073487758636475,"702":-5.6651225090026855,"703":1.50423264503479,"704":5.596225738525391,"705":-1.179740309715271,"706":-0.33864086866378784,"707":-1.7823673486709595,"708":-0.014702706597745419,"709":1.5038076639175415,"710":-3.634336471557617,"711":-2.9374916553497314,"712":-2.3539223670959473,"713":-2.246619701385498,"714":-0.8046780228614807,"715":-0.4889258146286011,"716":0.2273808866739273,"717":-3.267346143722534,"718":3.7092385292053223,"719":-2.5384485721588135,"720":-0.5610225200653076,"721":-10.322795867919922,"722":-1.1351861953735352,"723":-5.419160842895508,"724":0.9230468273162842,"725":-0.8998633027076721,"726":-0.2154981940984726,"727":-5.615312099456787,"728":0.9020031690597534,"729":-2.093132972717285,"730":5.56612491607666,"731":-6.796964168548584,"732":-4.470915794372559,"733":11.501567840576172,"734":-0.9113812446594238,"735":4.050107002258301,"736":-3.0973315238952637,"737":0.585133969783783,"738":-0.5189710259437561,"739":8.47912883758545,"740":12.698925018310547,"741":-3.7242140769958496,"742":-3.5862767696380615,"743":0.5376302003860474,"744":10.120047569274902,"745":-7.445465087890625,"746":-5.405643939971924,"747":-1.7720301151275635,"748":-1.6878186464309692,"749":7.805671215057373,"750":-1.324007511138916,"751":8.409337997436523,"752":1.302846908569336,"753":-3.9835712909698486,"754":0.5987358689308167,"755":3.7062246799468994,"756":-2.8741092681884766,"757":2.4474785327911377,"758":4.721959114074707,"759":0.6440111994743347,"760":1.9317080974578857,"761":-2.1098670959472656,"762":-1.7864645719528198,"763":-3.280268430709839,"764":3.244321823120117,"765":1.788392424583435,"766":-3.7727768421173096,"767":3.3205981254577637,"768":0.04973269999027252,"769":4.52724027633667,"770":6.703299045562744,"771":-3.6521053314208984,"772":-0.04879026859998703,"773":2.3576231002807617,"774":4.302803993225098,"775":-1.3841474056243896,"776":0.6686369776725769,"777":0.7017632722854614,"778":2.5530283451080322,"779":7.16412878036499,"780":-6.196831703186035,"781":2.8837804794311523,"782":5.64704704284668,"783":-3.453719139099121,"784":-3.582085609436035,"785":1.2248238325119019,"786":3.7277262210845947,"787":-0.837572455406189,"788":5.792339324951172,"789":-1.316383719444275,"790":-0.4505757987499237,"791":-5.8491129875183105,"792":6.7840375900268555,"793":-3.1628541946411133,"794":-1.6113358736038208,"795":3.2650632858276367,"796":-0.2230893075466156,"797":6.340025424957275,"798":0.8498016595840454,"799":0.514298677444458,"800":-0.8076587915420532,"801":4.031914234161377,"802":5.370635509490967,"803":2.2221105098724365,"804":4.162920951843262,"805":-1.3684651851654053,"806":2.124589681625366,"807":4.760698318481445,"808":-2.8017661571502686,"809":2.855745553970337,"810":0.8704227805137634,"811":-9.266373634338379}},"hiddenLayers":[{"inputMatrix":{"rows":20,"columns":28,"weights":{"0":3.1865575313568115,"1":0.5183403491973877,"2":1.2514796257019043,"3":-1.516702651977539,"4":-0.43995213508605957,"5":0.9719701409339905,"6":1.1357676982879639,"7":1.9992876052856445,"8":1.1037057638168335,"9":2.8183741569519043,"10":1.0829837322235107,"11":0.9307649731636047,"12":0.13396431505680084,"13":-1.9164674282073975,"14":-2.4249165058135986,"15":0.6562513113021851,"16":-0.8955052495002747,"17":-3.9479503631591797,"18":-0.0810542032122612,"19":1.5835264921188354,"20":0.6760149002075195,"21":2.36860728263855,"22":0.8616219162940979,"23":-0.0010712513467296958,"24":1.9450716972351074,"25":-0.387416273355484,"26":-0.21014338731765747,"27":1.626850962638855,"28":-1.820569396018982,"29":-3.3776001930236816,"30":0.6009973287582397,"31":0.6988682150840759,"32":-1.4954911470413208,"33":0.9113463163375854,"34":0.28254058957099915,"35":-2.6114325523376465,"36":-1.4247745275497437,"37":-1.2121286392211914,"38":0.7048040628433228,"39":0.23109039664268494,"40":0.473338782787323,"41":1.9653301239013672,"42":0.08198261260986328,"43":1.6645351648330688,"44":0.9029185771942139,"45":-1.0410122871398926,"46":-0.599786102771759,"47":-2.602293014526367,"48":-2.882904529571533,"49":0.30035698413848877,"50":-2.0624277591705322,"51":1.7656282186508179,"52":-0.4312869608402252,"53":-2.1174983978271484,"54":-1.9252650737762451,"55":1.7311683893203735,"56":-3.9488790035247803,"57":-0.28032445907592773,"58":0.6678021550178528,"59":-0.15844513475894928,"60":3.313856363296509,"61":-4.788355350494385,"62":-0.8177211284637451,"63":-1.7197402715682983,"64":1.2381575107574463,"65":-0.6937570571899414,"66":0.5151399374008179,"67":0.9486714601516724,"68":0.7744190096855164,"69":2.3614838123321533,"70":2.5262792110443115,"71":-0.2711321711540222,"72":-0.2224663496017456,"73":-0.7954098582267761,"74":0.828021228313446,"75":0.49280422925949097,"76":-0.19630318880081177,"77":-1.8195680379867554,"78":0.6032986044883728,"79":2.6119446754455566,"80":-2.68485689163208,"81":0.9486045241355896,"82":0.3084801137447357,"83":-4.117007255554199,"84":-1.250975251197815,"85":0.42317014932632446,"86":-2.922889232635498,"87":2.2665467262268066,"88":-1.1447035074234009,"89":-1.2893414497375488,"90":1.0191041231155396,"91":-1.1848328113555908,"92":0.3362259268760681,"93":-0.7390456795692444,"94":0.13788281381130219,"95":-0.2097025364637375,"96":-1.0647661685943604,"97":-0.28862065076828003,"98":2.4597909450531006,"99":2.6532697677612305,"100":-1.5036413669586182,"101":1.209028959274292,"102":-0.7130194306373596,"103":0.800230860710144,"104":0.5900266170501709,"105":-1.4579708576202393,"106":-1.8424152135849,"107":0.5474204421043396,"108":-2.1178762912750244,"109":-0.9021736979484558,"110":-3.0975303649902344,"111":1.2581392526626587,"112":-1.6994400024414062,"113":-1.1119569540023804,"114":-1.095660924911499,"115":0.4801476299762726,"116":-0.48946624994277954,"117":-2.446099042892456,"118":1.7384309768676758,"119":0.37595149874687195,"120":0.4640501141548157,"121":-1.519953727722168,"122":1.9482265710830688,"123":-1.4229252338409424,"124":-0.49574100971221924,"125":1.7302838563919067,"126":0.010242922231554985,"127":0.8193836212158203,"128":-1.3987879753112793,"129":1.0234328508377075,"130":0.697073757648468,"131":-0.096729576587677,"132":-1.2932188510894775,"133":-1.3394544124603271,"134":-1.1164761781692505,"135":0.9502854943275452,"136":-2.4434752464294434,"137":-0.2179393768310547,"138":-0.43770959973335266,"139":0.7454886436462402,"140":1.188210368156433,"141":-0.21638166904449463,"142":-2.3285133838653564,"143":-0.7778839468955994,"144":-0.7143024802207947,"145":1.2317709922790527,"146":1.4801368713378906,"147":0.07818058133125305,"148":-0.8085927367210388,"149":1.2922285795211792,"150":-0.7829586267471313,"151":0.8410693407058716,"152":-0.09742461889982224,"153":-1.6578199863433838,"154":-1.6333085298538208,"155":2.0577175617218018,"156":-0.7669092416763306,"157":-1.5460227727890015,"158":-1.762607455253601,"159":-2.7304494380950928,"160":-2.142622470855713,"161":1.4962531328201294,"162":-1.695109248161316,"163":-3.145742416381836,"164":1.8540897369384766,"165":-2.5180411338806152,"166":-0.1583472341299057,"167":0.2946159541606903,"168":0.9552733302116394,"169":2.006527900695801,"170":2.975499391555786,"171":-0.9962360262870789,"172":-1.1482373476028442,"173":2.066087484359741,"174":0.7191833257675171,"175":2.6181349754333496,"176":1.7798943519592285,"177":1.8309825658798218,"178":-2.3014280796051025,"179":2.562216281890869,"180":0.9992461800575256,"181":-1.769310712814331,"182":-1.5364323854446411,"183":-3.7850489616394043,"184":0.833564281463623,"185":0.3466843068599701,"186":-1.2770678997039795,"187":-0.34330326318740845,"188":2.539515256881714,"189":1.708247184753418,"190":0.49861982464790344,"191":1.8199483156204224,"192":1.3398668766021729,"193":0.7412763237953186,"194":0.019291946664452553,"195":1.95913827419281,"196":1.0869030952453613,"197":0.09932514280080795,"198":0.7571069598197937,"199":-1.6492735147476196,"200":-3.7600162029266357,"201":1.2675918340682983,"202":2.1796600818634033,"203":1.6229369640350342,"204":0.8631422519683838,"205":0.46265342831611633,"206":1.6548105478286743,"207":-1.6503239870071411,"208":2.8721799850463867,"209":-1.7617734670639038,"210":0.5532310009002686,"211":1.276539921760559,"212":-1.0060149431228638,"213":-1.3806421756744385,"214":-1.4673415422439575,"215":-0.6148695945739746,"216":-0.3101721704006195,"217":0.5123645067214966,"218":-0.23649393022060394,"219":1.0360023975372314,"220":1.0095970630645752,"221":-0.047156766057014465,"222":-3.132338523864746,"223":3.042170763015747,"224":-2.203672170639038,"225":1.235532283782959,"226":0.6089779734611511,"227":-1.98963463306427,"228":1.254185676574707,"229":-3.504992723464966,"230":0.3381713330745697,"231":0.35480862855911255,"232":0.8067980408668518,"233":-2.9591166973114014,"234":0.8417232036590576,"235":0.6209811568260193,"236":-0.2798437774181366,"237":3.7867321968078613,"238":2.1888251304626465,"239":0.41114649176597595,"240":-1.3742165565490723,"241":-0.7142923474311829,"242":1.4334884881973267,"243":0.7998530864715576,"244":0.2031255066394806,"245":0.44165945053100586,"246":0.662125289440155,"247":0.4429115951061249,"248":-2.4508988857269287,"249":1.7106901407241821,"250":-0.054086316376924515,"251":-1.2804397344589233,"252":1.5833213329315186,"253":0.0664069801568985,"254":-2.8767309188842773,"255":1.3895776271820068,"256":-0.4100376069545746,"257":2.4578685760498047,"258":-0.19586648046970367,"259":-0.03491377457976341,"260":-0.387853741645813,"261":1.9804362058639526,"262":-1.29524827003479,"263":2.1977124214172363,"264":1.150591254234314,"265":-2.990612745285034,"266":-0.18635357916355133,"267":1.05184805393219,"268":0.7224332690238953,"269":0.3457595705986023,"270":-1.6766408681869507,"271":0.8470918536186218,"272":0.5927910208702087,"273":-0.9992573261260986,"274":-2.5633583068847656,"275":-1.8762840032577515,"276":2.0015227794647217,"277":-0.5310531854629517,"278":1.5572552680969238,"279":4.262631416320801,"280":0.3899107873439789,"281":-1.4864461421966553,"282":-3.0174787044525146,"283":1.1025140285491943,"284":-2.7725160121917725,"285":-0.05091021582484245,"286":-0.0693138912320137,"287":-0.7798312306404114,"288":-0.23000647127628326,"289":0.6380578279495239,"290":-0.1937321275472641,"291":-1.9247090816497803,"292":-0.684968888759613,"293":-0.5365696549415588,"294":1.7459131479263306,"295":1.0781705379486084,"296":-0.32370299100875854,"297":1.889176368713379,"298":-0.6012692451477051,"299":-3.0385982990264893,"300":-1.5849034786224365,"301":-2.130227565765381,"302":-2.9881937503814697,"303":-0.7861725687980652,"304":-0.8300705552101135,"305":-1.0151582956314087,"306":-4.000384330749512,"307":2.001579523086548,"308":0.8193751573562622,"309":-2.7561824321746826,"310":-3.615406036376953,"311":1.1712067127227783,"312":0.736819326877594,"313":0.2837968170642853,"314":0.36628401279449463,"315":-3.4880154132843018,"316":-0.9767684936523438,"317":0.7246750593185425,"318":0.08231715857982635,"319":-1.089837908744812,"320":-0.644728422164917,"321":-0.8170503377914429,"322":-1.0505478382110596,"323":2.498784303665161,"324":-0.34526968002319336,"325":-0.700333833694458,"326":-1.4915608167648315,"327":-3.4699151515960693,"328":-0.9417157173156738,"329":-1.8272113800048828,"330":-1.3994487524032593,"331":-2.17189621925354,"332":1.081347107887268,"333":-2.2496180534362793,"334":-0.40006041526794434,"335":-2.5057733058929443,"336":0.9291380643844604,"337":1.1433970928192139,"338":-4.337923049926758,"339":-1.6305493116378784,"340":-0.37435734272003174,"341":0.27327704429626465,"342":1.767612099647522,"343":-1.12776517868042,"344":-1.135604977607727,"345":0.8746532201766968,"346":-0.8630594611167908,"347":-0.009500324726104736,"348":0.27120450139045715,"349":-1.3257222175598145,"350":-0.8056485056877136,"351":0.5920777320861816,"352":0.9502619504928589,"353":-2.288604259490967,"354":-1.2967782020568848,"355":-2.1195335388183594,"356":0.3630683422088623,"357":2.012928009033203,"358":-2.4377036094665527,"359":-1.4510833024978638,"360":1.9443739652633667,"361":-1.5430080890655518,"362":-0.4732239246368408,"363":1.3703646659851074,"364":-0.37355512380599976,"365":-4.605388164520264,"366":1.4133753776550293,"367":-1.6280479431152344,"368":-2.31144380569458,"369":0.5261390805244446,"370":0.8478637337684631,"371":0.3677960932254791,"372":-0.1466992050409317,"373":-1.0877299308776855,"374":4.11683464050293,"375":-0.5096282958984375,"376":1.183699131011963,"377":0.8928954005241394,"378":0.5404467582702637,"379":2.940906524658203,"380":1.2830052375793457,"381":1.0246312618255615,"382":0.02749871090054512,"383":-1.6928716897964478,"384":-0.5012867450714111,"385":0.04765816777944565,"386":-0.5242986083030701,"387":2.124408483505249,"388":-0.04926955699920654,"389":-2.4541358947753906,"390":-3.5755436420440674,"391":2.7484288215637207,"392":1.8881789445877075,"393":-0.14399442076683044,"394":1.1124347448349,"395":-2.851353645324707,"396":-1.2785379886627197,"397":3.517399787902832,"398":-0.6366202235221863,"399":1.893744945526123,"400":1.6727263927459717,"401":3.164041757583618,"402":-0.29374194145202637,"403":0.6421627402305603,"404":2.471874475479126,"405":-1.7650492191314697,"406":-1.9318196773529053,"407":-0.18587127327919006,"408":2.830754041671753,"409":-1.167228102684021,"410":-1.249356746673584,"411":1.642717719078064,"412":0.7038587331771851,"413":2.3295960426330566,"414":0.5186445713043213,"415":-0.02298993244767189,"416":3.378018617630005,"417":0.7294972538948059,"418":0.4608420431613922,"419":1.7820403575897217,"420":-2.6636064052581787,"421":-0.49708542227745056,"422":1.9805876016616821,"423":0.8624255657196045,"424":0.9032348394393921,"425":-0.7044340968132019,"426":-2.1359610557556152,"427":1.608560562133789,"428":-0.07264427840709686,"429":-3.726545810699463,"430":-2.4249038696289062,"431":2.2116951942443848,"432":-3.155837297439575,"433":2.69347882270813,"434":1.8452681303024292,"435":-0.9748685956001282,"436":-0.2583928406238556,"437":1.9684993028640747,"438":1.8075212240219116,"439":-0.35812678933143616,"440":-1.206865668296814,"441":1.9844446182250977,"442":0.10057053714990616,"443":4.0049052238464355,"444":0.16785851120948792,"445":-0.7293685078620911,"446":1.9154212474822998,"447":-0.7713847160339355,"448":-1.3426477909088135,"449":-0.5783261060714722,"450":-1.9687649011611938,"451":4.191183567047119,"452":-0.2800138592720032,"453":-2.2893478870391846,"454":0.7725300788879395,"455":-1.8411540985107422,"456":0.44707027077674866,"457":-0.9231672883033752,"458":-0.08546222746372223,"459":-0.5766667127609253,"460":-1.5939409732818604,"461":1.0539649724960327,"462":0.6515728235244751,"463":0.3300694227218628,"464":-3.3924553394317627,"465":3.3768324851989746,"466":0.7556764483451843,"467":-1.191718339920044,"468":-1.335648536682129,"469":-2.555065155029297,"470":-1.3223503828048706,"471":-1.3030370473861694,"472":-0.3404782712459564,"473":-1.2997549772262573,"474":-0.3951651453971863,"475":0.09689705818891525,"476":1.3810445070266724,"477":0.027913013473153114,"478":-3.539487361907959,"479":1.7919756174087524,"480":-1.2672961950302124,"481":0.24329513311386108,"482":3.3820347785949707,"483":-2.062954902648926,"484":-0.29094168543815613,"485":1.929688811302185,"486":1.9314467906951904,"487":-2.5859482288360596,"488":-1.1345367431640625,"489":-1.2858995199203491,"490":0.2098054587841034,"491":1.4794946908950806,"492":-1.0668680667877197,"493":1.9049692153930664,"494":-2.318507671356201,"495":-3.598114252090454,"496":0.5812415480613708,"497":-1.7904554605484009,"498":-1.5830620527267456,"499":-1.183593511581421,"500":0.2858496904373169,"501":-0.5770213603973389,"502":-1.906197428703308,"503":1.8138874769210815,"504":-1.7386502027511597,"505":-0.1409038007259369,"506":-2.002713680267334,"507":0.5246096849441528,"508":0.27665087580680847,"509":-2.685495138168335,"510":-0.16383254528045654,"511":-1.6896021366119385,"512":-1.1212133169174194,"513":-1.5241398811340332,"514":0.246165469288826,"515":-0.6897740364074707,"516":-1.1932799816131592,"517":1.874398112297058,"518":-0.220796138048172,"519":2.2893903255462646,"520":-4.121269226074219,"521":1.7046159505844116,"522":0.4478706121444702,"523":-1.1785736083984375,"524":-2.1884286403656006,"525":-1.6329329013824463,"526":-1.1978434324264526,"527":-2.471482515335083,"528":-2.701122522354126,"529":-0.5755160450935364,"530":-1.0217258930206299,"531":1.4677633047103882,"532":-1.640994906425476,"533":-1.1987667083740234,"534":0.10984009504318237,"535":2.870065689086914,"536":-0.4546215832233429,"537":-1.7882721424102783,"538":1.2402236461639404,"539":-0.5810822248458862,"540":-1.4510294198989868,"541":-3.2968337535858154,"542":1.07514226436615,"543":-0.6102906465530396,"544":-2.0232913494110107,"545":2.871929168701172,"546":1.178938388824463,"547":0.4494609534740448,"548":-1.8379586935043335,"549":2.580735445022583,"550":0.3418225944042206,"551":-0.6516525745391846,"552":-2.3183486461639404,"553":-1.2828986644744873,"554":-0.06889965385198593,"555":1.292493224143982,"556":-3.3026092052459717,"557":-0.20705385506153107,"558":-0.034443456679582596,"559":0.3526514172554016}},"inputHidden":{"rows":20,"columns":20,"weights":{"0":-1.5889616012573242,"1":4.064810752868652,"2":2.3575215339660645,"3":0.6240002512931824,"4":-3.4013876914978027,"5":-0.9893750548362732,"6":1.7256464958190918,"7":-1.3677113056182861,"8":2.8388571739196777,"9":5.958456993103027,"10":0.028837081044912338,"11":2.3041651248931885,"12":2.2123353481292725,"13":0.9350600242614746,"14":1.3603683710098267,"15":-1.2748855352401733,"16":0.09148213267326355,"17":0.03196601942181587,"18":2.2444517612457275,"19":3.254037618637085,"20":-1.6095576286315918,"21":0.6495732665061951,"22":1.740714192390442,"23":1.0866525173187256,"24":-0.5187630653381348,"25":0.1559947431087494,"26":-0.3676818311214447,"27":-2.9809210300445557,"28":0.3783904016017914,"29":1.0672776699066162,"30":0.4794464707374573,"31":1.0579161643981934,"32":-0.13021986186504364,"33":0.3940064609050751,"34":0.11558134853839874,"35":-0.46895530819892883,"36":-0.5926045179367065,"37":1.922478199005127,"38":0.6742516160011292,"39":0.23315289616584778,"40":0.5887540578842163,"41":1.587153673171997,"42":-0.8569367527961731,"43":-2.7037320137023926,"44":-1.0592762231826782,"45":0.7780857682228088,"46":-0.41240832209587097,"47":-0.010641642846167088,"48":-0.7167724967002869,"49":2.2199018001556396,"50":-1.1139861345291138,"51":-0.3517399728298187,"52":1.0801464319229126,"53":0.27695485949516296,"54":0.6391974091529846,"55":-0.43550795316696167,"56":-0.5799716114997864,"57":-2.3187742233276367,"58":1.0011353492736816,"59":-2.233928680419922,"60":1.2549641132354736,"61":0.7003459930419922,"62":-1.1229687929153442,"63":-1.5644105672836304,"64":0.004611142445355654,"65":-2.4555113315582275,"66":0.26094451546669006,"67":4.705754280090332,"68":-0.28012534976005554,"69":0.5138421654701233,"70":-0.6285372376441956,"71":-3.1908910274505615,"72":2.223548650741577,"73":0.3561590015888214,"74":-2.7504987716674805,"75":0.8785097002983093,"76":-1.9993220567703247,"77":-0.19352714717388153,"78":-0.5133153200149536,"79":-1.5933151245117188,"80":1.4222400188446045,"81":1.0322589874267578,"82":-0.09440496563911438,"83":-0.3220823109149933,"84":-1.2317570447921753,"85":0.11299252510070801,"86":-0.5742470622062683,"87":1.0148552656173706,"88":-0.175943985581398,"89":0.09551816433668137,"90":0.15262426435947418,"91":-1.1245893239974976,"92":0.3425546884536743,"93":0.021464155986905098,"94":0.146035835146904,"95":-1.9302326440811157,"96":1.503305196762085,"97":0.22228023409843445,"98":0.12746354937553406,"99":0.6315980553627014,"100":1.0030615329742432,"101":0.4400729537010193,"102":-0.983640730381012,"103":-1.940629243850708,"104":2.0723354816436768,"105":-2.4759626388549805,"106":-0.5484225749969482,"107":2.525052070617676,"108":0.4744602143764496,"109":0.6539784669876099,"110":-1.12726891040802,"111":-2.829378366470337,"112":1.1816574335098267,"113":-1.3923026323318481,"114":-1.3542686700820923,"115":-1.460715651512146,"116":-2.862191677093506,"117":0.04964275285601616,"118":0.7911924123764038,"119":-1.9855257272720337,"120":3.5773205757141113,"121":0.7433855533599854,"122":-2.9723782539367676,"123":0.17405730485916138,"124":0.19640721380710602,"125":-1.2444623708724976,"126":0.057464372366666794,"127":-3.463559865951538,"128":-2.6429443359375,"129":-1.5917497873306274,"130":-1.3598260879516602,"131":-0.9548044204711914,"132":1.7693089246749878,"133":-0.5355620980262756,"134":-1.5116422176361084,"135":2.54010272026062,"136":-0.5468319654464722,"137":0.09598814696073532,"138":0.2720693349838257,"139":-0.43982869386672974,"140":0.059943486005067825,"141":0.8512099981307983,"142":1.166539192199707,"143":-0.8017082810401917,"144":-0.3543940782546997,"145":-3.2863516807556152,"146":-0.05606333166360855,"147":-2.04248046875,"148":1.7305781841278076,"149":-1.320340871810913,"150":-0.033227644860744476,"151":0.1376386433839798,"152":2.4117846488952637,"153":-1.1772335767745972,"154":-2.0585436820983887,"155":-2.9179749488830566,"156":-2.022367000579834,"157":1.078848123550415,"158":-0.46032029390335083,"159":0.3464466333389282,"160":-1.509131669998169,"161":-1.2317795753479004,"162":0.859347939491272,"163":1.1080305576324463,"164":1.4600282907485962,"165":1.1096904277801514,"166":0.40173718333244324,"167":-0.41841065883636475,"168":0.6020078659057617,"169":-0.10881828516721725,"170":1.4594299793243408,"171":-1.5915430784225464,"172":0.9244562387466431,"173":-1.2544052600860596,"174":-0.7771043181419373,"175":-0.12120399624109268,"176":-1.4884965419769287,"177":-1.058707356452942,"178":-0.01304580271244049,"179":-0.0046556866727769375,"180":-1.646529197692871,"181":1.6897318363189697,"182":-4.059638977050781,"183":-2.7527105808258057,"184":2.279599905014038,"185":-2.5188586711883545,"186":-1.3931660652160645,"187":0.4092736840248108,"188":-0.5679810047149658,"189":-3.9160656929016113,"190":-3.320279121398926,"191":-1.6768689155578613,"192":2.370927333831787,"193":-0.5186807513237,"194":-1.9247242212295532,"195":-0.10794640332460403,"196":-4.847646236419678,"197":-3.8568949699401855,"198":-2.502225875854492,"199":-2.5045177936553955,"200":0.9003541469573975,"201":0.7301615476608276,"202":2.6721744537353516,"203":-1.654037356376648,"204":0.5577287673950195,"205":-1.988781452178955,"206":-0.6679091453552246,"207":-0.772456705570221,"208":0.9763111472129822,"209":-1.3238431215286255,"210":-1.2798393964767456,"211":-0.8361423015594482,"212":2.421638250350952,"213":-0.19681522250175476,"214":-2.8191211223602295,"215":-1.006788730621338,"216":-1.192564606666565,"217":0.4441562294960022,"218":-1.5901737213134766,"219":-1.8146559000015259,"220":-1.6977159976959229,"221":0.31534549593925476,"222":-1.0771452188491821,"223":-2.1788594722747803,"224":1.213074803352356,"225":0.1809806376695633,"226":-0.49682682752609253,"227":0.1322898268699646,"228":-0.6406708359718323,"229":-1.1676090955734253,"230":-1.3809911012649536,"231":-0.06086224690079689,"232":0.3302775025367737,"233":-1.1498883962631226,"234":0.37725138664245605,"235":0.027737755328416824,"236":-2.101003646850586,"237":-0.44666188955307007,"238":0.055778298527002335,"239":-1.6804836988449097,"240":-2.141240119934082,"241":0.842167854309082,"242":0.3500044047832489,"243":-2.1069352626800537,"244":0.8862035870552063,"245":0.09019305557012558,"246":-1.1378506422042847,"247":-0.394431471824646,"248":-2.942269802093506,"249":0.4883495569229126,"250":-1.4204747676849365,"251":-0.9806466698646545,"252":0.06158507242798805,"253":1.8069928884506226,"254":-0.48923835158348083,"255":0.8062710762023926,"256":-4.824780464172363,"257":-1.051255464553833,"258":0.27790436148643494,"259":-2.668602228164673,"260":-6.331598281860352,"261":0.8909271359443665,"262":2.663724899291992,"263":-2.0225775241851807,"264":-1.7771059274673462,"265":2.3526957035064697,"266":0.2240089774131775,"267":-0.8743216395378113,"268":-1.6603984832763672,"269":1.0754956007003784,"270":0.9316486120223999,"271":2.1786983013153076,"272":2.363271951675415,"273":-2.60115122795105,"274":0.14292354881763458,"275":0.7290835976600647,"276":-2.345072031021118,"277":0.06955323368310928,"278":2.9318394660949707,"279":0.2635660469532013,"280":1.0603511333465576,"281":-0.5312939882278442,"282":2.1947309970855713,"283":0.33937788009643555,"284":-0.4405614733695984,"285":-0.14271722733974457,"286":-0.3901630640029907,"287":1.1825627088546753,"288":2.3066229820251465,"289":-0.6160756945610046,"290":-0.7005618214607239,"291":0.06869208812713623,"292":-0.1475343257188797,"293":-0.9027334451675415,"294":-1.6637389659881592,"295":-2.1824910640716553,"296":-1.1666911840438843,"297":-0.8809398412704468,"298":-0.5646544098854065,"299":-1.0377864837646484,"300":0.36968106031417847,"301":-1.9185200929641724,"302":0.6218721866607666,"303":1.7219346761703491,"304":-3.357813596725464,"305":-1.4798692464828491,"306":1.3572189807891846,"307":-4.0385212898254395,"308":2.6003286838531494,"309":3.23258376121521,"310":-1.4118543863296509,"311":-0.6196581721305847,"312":-1.374275803565979,"313":0.3109038472175598,"314":-3.623382806777954,"315":-2.7505626678466797,"316":0.9756806492805481,"317":-1.0537890195846558,"318":1.1736276149749756,"319":-0.6562741994857788,"320":-0.26593494415283203,"321":2.3830535411834717,"322":-3.1035473346710205,"323":-0.3024601936340332,"324":-0.3602684438228607,"325":-2.50526762008667,"326":-2.344996929168701,"327":2.417379856109619,"328":-2.5269253253936768,"329":-1.600296974182129,"330":-0.6674018502235413,"331":-1.8461830615997314,"332":2.048790693283081,"333":0.7825244069099426,"334":-1.7206767797470093,"335":-0.5572546720504761,"336":-0.8477688431739807,"337":-0.6732416152954102,"338":-0.3508121073246002,"339":-0.5857513546943665,"340":-0.1144506111741066,"341":1.5982884168624878,"342":-1.3525538444519043,"343":-1.7833348512649536,"344":1.4259083271026611,"345":0.5395976901054382,"346":-2.443286418914795,"347":2.5609424114227295,"348":-1.6727970838546753,"349":-1.1724222898483276,"350":-0.19948475062847137,"351":-0.6595237255096436,"352":1.4127932786941528,"353":1.5367907285690308,"354":-0.7727813124656677,"355":-0.28261905908584595,"356":-1.3796513080596924,"357":0.3840039372444153,"358":-1.6479437351226807,"359":-0.6491671204566956,"360":-1.8317805528640747,"361":-1.433516263961792,"362":0.43009263277053833,"363":-0.29338976740837097,"364":0.35342279076576233,"365":0.38618728518486023,"366":-1.549226999282837,"367":0.7620951533317566,"368":3.0320749282836914,"369":-0.5615441799163818,"370":-0.22074861824512482,"371":0.7108003497123718,"372":0.16112792491912842,"373":-1.7490261793136597,"374":-1.0932385921478271,"375":-1.6707649230957031,"376":-3.2269089221954346,"377":0.15655779838562012,"378":-1.6403822898864746,"379":0.2996309995651245,"380":-0.31971555948257446,"381":0.2921736240386963,"382":0.9101879000663757,"383":-1.5931994915008545,"384":0.007999338209629059,"385":0.26095834374427795,"386":-1.1291108131408691,"387":0.1432945430278778,"388":-0.666187584400177,"389":0.2640853226184845,"390":0.8914288282394409,"391":-0.1362115442752838,"392":0.18913201987743378,"393":-0.48368361592292786,"394":0.31847459077835083,"395":1.6336392164230347,"396":-0.20195934176445007,"397":-0.351853609085083,"398":0.6572664976119995,"399":-0.6555942296981812}},"inputBias":{"rows":20,"columns":1,"weights":{"0":-0.19396187365055084,"1":-1.9667084217071533,"2":-0.1327887773513794,"3":-0.16938579082489014,"4":-0.2817249894142151,"5":0.1351385861635208,"6":-0.14561666548252106,"7":-0.6174513101577759,"8":0.19186529517173767,"9":-0.45511215925216675,"10":-0.5699386596679688,"11":-0.34679773449897766,"12":-0.5961698293685913,"13":-0.3218819200992584,"14":0.17448462545871735,"15":-0.5687360763549805,"16":-1.9900084733963013,"17":-1.2331926822662354,"18":-1.2965540885925293,"19":-0.6863747835159302}},"forgetMatrix":{"rows":20,"columns":28,"weights":{"0":2.4466190338134766,"1":-2.011685371398926,"2":0.9376853108406067,"3":-1.704945683479309,"4":-0.6948214769363403,"5":3.0459389686584473,"6":-1.1697336435317993,"7":-0.6839139461517334,"8":-1.532121181488037,"9":2.2390315532684326,"10":2.252103090286255,"11":1.5968858003616333,"12":0.5798836350440979,"13":-2.740912675857544,"14":-1.763674259185791,"15":-0.4020322561264038,"16":1.7837473154067993,"17":3.112462043762207,"18":0.8441581726074219,"19":0.3230311870574951,"20":1.6566104888916016,"21":0.9232792854309082,"22":-1.1206746101379395,"23":-0.34456536173820496,"24":3.745194435119629,"25":-1.0186907052993774,"26":0.5839414596557617,"27":0.559589684009552,"28":-2.0346899032592773,"29":0.486579954624176,"30":0.612183690071106,"31":1.1696906089782715,"32":0.9837646484375,"33":-3.043376922607422,"34":-0.22047197818756104,"35":-1.8650034666061401,"36":0.04680103063583374,"37":-1.6942025423049927,"38":1.2378239631652832,"39":0.3245294392108917,"40":-1.362687587738037,"41":2.474933385848999,"42":0.8166157603263855,"43":-0.10145442932844162,"44":-3.9666266441345215,"45":1.0215815305709839,"46":2.05720853805542,"47":0.6804197430610657,"48":0.2968968152999878,"49":-0.7606099247932434,"50":0.6259518265724182,"51":0.08952860534191132,"52":-2.667130947113037,"53":1.0924298763275146,"54":-0.030171427875757217,"55":-1.0740687847137451,"56":3.258561372756958,"57":-0.2567163407802582,"58":-0.2871949374675751,"59":0.8555553555488586,"60":-2.9617929458618164,"61":3.426862955093384,"62":0.581865668296814,"63":2.8213279247283936,"64":-0.878173291683197,"65":2.67437481880188,"66":0.34952104091644287,"67":-1.290391206741333,"68":0.16831150650978088,"69":-2.7687041759490967,"70":-3.6927263736724854,"71":-0.7144540548324585,"72":2.0594403743743896,"73":1.8852641582489014,"74":-3.354966878890991,"75":-0.29729294776916504,"76":0.147427037358284,"77":2.595594644546509,"78":-0.08760636299848557,"79":-3.492593765258789,"80":2.956362724304199,"81":-1.118024230003357,"82":0.21391984820365906,"83":2.5317981243133545,"84":1.2550957202911377,"85":0.4258239269256592,"86":-0.10159443318843842,"87":-0.22220230102539062,"88":-1.269505262374878,"89":1.7794781923294067,"90":0.36074167490005493,"91":1.2554967403411865,"92":0.877765953540802,"93":0.6907275915145874,"94":0.6888515949249268,"95":-0.025726808235049248,"96":1.2732423543930054,"97":-0.6063588857650757,"98":-1.2810313701629639,"99":0.030421659350395203,"100":1.0642362833023071,"101":1.5451979637145996,"102":-1.2067290544509888,"103":-0.7939128279685974,"104":0.564677894115448,"105":0.4288393557071686,"106":-0.25210168957710266,"107":-0.1271773874759674,"108":-0.10929426550865173,"109":0.06950977444648743,"110":-0.05874273180961609,"111":1.6854877471923828,"112":-0.8656738996505737,"113":-1.6868810653686523,"114":-0.33698612451553345,"115":-0.19015301764011383,"116":0.5623456835746765,"117":-0.5223451256752014,"118":-0.5986177325248718,"119":-0.3502415716648102,"120":-0.7366105914115906,"121":-1.1730077266693115,"122":1.1391534805297852,"123":-0.10375091433525085,"124":0.7189866900444031,"125":1.3528944253921509,"126":0.8441576957702637,"127":1.3278130292892456,"128":-0.7622660994529724,"129":-1.5112617015838623,"130":-0.3213081359863281,"131":-0.20425660908222198,"132":-1.5040922164916992,"133":-0.38234469294548035,"134":-0.8419155478477478,"135":0.19693002104759216,"136":0.2078687846660614,"137":-0.226395845413208,"138":-1.0070228576660156,"139":-0.4291236102581024,"140":2.121659278869629,"141":0.7279967069625854,"142":-0.298464298248291,"143":-0.24011874198913574,"144":-1.0037939548492432,"145":2.808375358581543,"146":-0.4260645806789398,"147":2.8620152473449707,"148":-0.09359659254550934,"149":2.5422592163085938,"150":-0.16204898059368134,"151":-0.08980602771043777,"152":-0.7490795254707336,"153":-3.156965494155884,"154":-1.4506157636642456,"155":0.3614218235015869,"156":1.0687109231948853,"157":-0.2802751660346985,"158":-1.0900471210479736,"159":0.22995765507221222,"160":1.745377540588379,"161":1.2048736810684204,"162":-0.08288650214672089,"163":-0.5935518145561218,"164":2.852734088897705,"165":0.30504918098449707,"166":0.528704047203064,"167":1.5784739255905151,"168":2.041816473007202,"169":0.33985796570777893,"170":1.7905552387237549,"171":-1.4158425331115723,"172":1.131018877029419,"173":1.71381676197052,"174":-0.11000504344701767,"175":1.237972617149353,"176":2.3172194957733154,"177":1.5300166606903076,"178":-0.2186812460422516,"179":1.2634868621826172,"180":1.4314303398132324,"181":-2.1013360023498535,"182":-0.9778274893760681,"183":-0.7957467436790466,"184":1.5931190252304077,"185":0.8103380799293518,"186":-0.8475261926651001,"187":1.243898868560791,"188":1.0165295600891113,"189":1.5952969789505005,"190":-0.1416429877281189,"191":-0.5580013990402222,"192":2.5926876068115234,"193":0.29336267709732056,"194":0.5190017819404602,"195":-0.4193233251571655,"196":-0.4265941381454468,"197":0.8543930649757385,"198":2.1380293369293213,"199":-1.356099247932434,"200":-0.4037073850631714,"201":2.6062252521514893,"202":-0.38714197278022766,"203":2.1693613529205322,"204":0.8220644593238831,"205":-1.6603131294250488,"206":-1.8767046928405762,"207":0.6045950055122375,"208":0.5249307751655579,"209":0.47133079171180725,"210":-0.6641751527786255,"211":-0.7971945405006409,"212":1.1515687704086304,"213":1.6214936971664429,"214":1.2630929946899414,"215":-0.2644643187522888,"216":1.7534774541854858,"217":2.9566712379455566,"218":0.11200817674398422,"219":2.0117409229278564,"220":3.960650682449341,"221":0.8053944110870361,"222":1.5232899188995361,"223":0.7612331509590149,"224":-0.007651222869753838,"225":-0.005607799626886845,"226":2.3743627071380615,"227":-3.2451603412628174,"228":-0.8621610999107361,"229":0.2359328716993332,"230":0.14812664687633514,"231":0.737587034702301,"232":1.9240556955337524,"233":0.6680651903152466,"234":-1.7585755586624146,"235":2.8781282901763916,"236":3.8798885345458984,"237":1.8135745525360107,"238":0.21727371215820312,"239":0.7873724102973938,"240":0.6110093593597412,"241":-0.1662677675485611,"242":0.5429955720901489,"243":-1.0084890127182007,"244":-0.2890378534793854,"245":3.0666747093200684,"246":0.42722323536872864,"247":1.5017739534378052,"248":0.148834690451622,"249":0.6589846014976501,"250":0.7925134897232056,"251":0.8525587916374207,"252":-0.3035476803779602,"253":-0.9558997750282288,"254":-1.6844358444213867,"255":1.1060711145401,"256":-1.26779043674469,"257":-0.2860848903656006,"258":2.5351614952087402,"259":-0.3303331136703491,"260":-0.6012302041053772,"261":-0.5433339476585388,"262":2.264312982559204,"263":-2.084474802017212,"264":-0.7214441299438477,"265":0.35785719752311707,"266":0.7706828117370605,"267":0.10761015862226486,"268":-1.2902562618255615,"269":-0.7610266804695129,"270":-0.9253541827201843,"271":-2.655635118484497,"272":-0.9695596694946289,"273":-0.5719118118286133,"274":-3.080782175064087,"275":-0.7368589043617249,"276":-0.1582881659269333,"277":-1.6079216003417969,"278":-2.534552812576294,"279":0.936141312122345,"280":0.15370699763298035,"281":-1.5663326978683472,"282":-1.746795892715454,"283":-1.698159098625183,"284":-0.7407711148262024,"285":0.013721881434321404,"286":0.9955698251724243,"287":-0.17251858115196228,"288":-1.3928377628326416,"289":-0.2581856846809387,"290":1.1014573574066162,"291":-1.4218922853469849,"292":1.7777059078216553,"293":-0.40619799494743347,"294":-0.20037950575351715,"295":1.2321557998657227,"296":1.564813256263733,"297":-2.3738324642181396,"298":-1.3164600133895874,"299":-0.7087343335151672,"300":-0.37796586751937866,"301":0.1911204308271408,"302":-1.0960626602172852,"303":1.1122950315475464,"304":-0.05033327266573906,"305":-1.1863514184951782,"306":-0.3525271415710449,"307":-0.01290309801697731,"308":-0.2139490842819214,"309":-2.1584551334381104,"310":-1.9588240385055542,"311":-0.2603449523448944,"312":0.7980785369873047,"313":-0.13551916182041168,"314":-0.21570731699466705,"315":-2.9319849014282227,"316":-0.8384411931037903,"317":-0.4998403489589691,"318":1.0258376598358154,"319":-0.489540696144104,"320":0.48599350452423096,"321":0.13885685801506042,"322":-0.5395802855491638,"323":2.0975842475891113,"324":0.8035189509391785,"325":-1.3720489740371704,"326":-0.36840805411338806,"327":-2.2364108562469482,"328":-1.9065035581588745,"329":0.12004060298204422,"330":-1.5863438844680786,"331":-1.1381182670593262,"332":1.0696752071380615,"333":-1.8208867311477661,"334":-0.47941356897354126,"335":-0.7805215716362,"336":0.2167457491159439,"337":-0.0038225785829126835,"338":-0.11410918831825256,"339":0.007583718281239271,"340":-3.007105588912964,"341":-0.1014631912112236,"342":-2.0644114017486572,"343":-0.6187224984169006,"344":0.6599718332290649,"345":-0.8639669418334961,"346":1.4870281219482422,"347":0.9354888796806335,"348":0.8236252069473267,"349":0.48218291997909546,"350":-0.003631280967965722,"351":-1.2751232385635376,"352":1.6208947896957397,"353":-0.33146584033966064,"354":-2.377816915512085,"355":-0.21180595457553864,"356":0.08329243212938309,"357":0.027764061465859413,"358":-0.377564936876297,"359":4.011775493621826,"360":-2.2185628414154053,"361":2.50726580619812,"362":0.8113617300987244,"363":3.3518011569976807,"364":0.6645618081092834,"365":-3.3766398429870605,"366":-0.45042163133621216,"367":-2.4746346473693848,"368":-1.353463053703308,"369":0.1848815679550171,"370":0.5106784105300903,"371":0.8296136260032654,"372":-1.7756216526031494,"373":-0.01757611706852913,"374":0.397361159324646,"375":-0.4637197256088257,"376":2.0619616508483887,"377":0.02292090654373169,"378":-0.6852370500564575,"379":3.278278112411499,"380":1.6154651641845703,"381":-0.21957510709762573,"382":0.6711450219154358,"383":-0.020033499225974083,"384":-1.3665454387664795,"385":1.7889337539672852,"386":-0.919754683971405,"387":-0.5757865309715271,"388":1.1338335275650024,"389":-2.205319881439209,"390":-1.7943384647369385,"391":1.7824811935424805,"392":-0.26923224329948425,"393":-0.967671811580658,"394":-2.925631046295166,"395":0.2554864287376404,"396":0.9564416408538818,"397":-0.5517963171005249,"398":0.12347332388162613,"399":-1.8942891359329224,"400":-2.8833556175231934,"401":-0.09728556126356125,"402":1.0382463932037354,"403":-1.2625234127044678,"404":0.19015289843082428,"405":-0.6238534450531006,"406":0.8172506093978882,"407":0.8210723400115967,"408":-0.39546316862106323,"409":-0.38724151253700256,"410":-1.2202565670013428,"411":-2.5442044734954834,"412":-1.0254818201065063,"413":-1.319210410118103,"414":-1.8644969463348389,"415":-1.474677562713623,"416":0.518999457359314,"417":-1.917040228843689,"418":-1.4878411293029785,"419":-0.2914649248123169,"420":-2.4055325984954834,"421":-2.4724373817443848,"422":-2.499727725982666,"423":3.1135776042938232,"424":-0.8096337914466858,"425":-0.9897737503051758,"426":0.5599708557128906,"427":0.8479817509651184,"428":-1.6144320964813232,"429":-2.4229576587677,"430":0.08272155374288559,"431":-4.0613203048706055,"432":-3.6905648708343506,"433":1.3435959815979004,"434":0.1494041234254837,"435":1.0385106801986694,"436":-3.0444278717041016,"437":1.6289900541305542,"438":0.8954280614852905,"439":-0.9489601850509644,"440":-1.1761772632598877,"441":-0.02040911093354225,"442":-2.635463237762451,"443":-1.936773419380188,"444":-0.8537195324897766,"445":-2.5247130393981934,"446":-2.2781970500946045,"447":1.3499997854232788,"448":1.240546703338623,"449":-1.181181788444519,"450":-0.5754322409629822,"451":-1.8692047595977783,"452":-0.7487851977348328,"453":1.112474799156189,"454":1.376598834991455,"455":2.10333251953125,"456":-1.0347317457199097,"457":0.9526526927947998,"458":1.6271076202392578,"459":-0.020625440403819084,"460":2.0953404903411865,"461":-1.4857815504074097,"462":-1.0152348279953003,"463":0.1264084279537201,"464":1.5342142581939697,"465":-1.5037357807159424,"466":-1.5986888408660889,"467":-0.7318344116210938,"468":-0.851815402507782,"469":1.3997968435287476,"470":-1.4546942710876465,"471":-0.652401328086853,"472":1.9672659635543823,"473":-0.6291295289993286,"474":-1.4680817127227783,"475":1.0874041318893433,"476":-0.6913492679595947,"477":-0.539271354675293,"478":0.5227388143539429,"479":-2.601909637451172,"480":-1.0246140956878662,"481":0.3469816744327545,"482":-1.5096169710159302,"483":-0.654688835144043,"484":0.6588449478149414,"485":-0.35390880703926086,"486":-0.8597139716148376,"487":2.5231196880340576,"488":0.9068195223808289,"489":-0.8262096047401428,"490":-1.3378409147262573,"491":0.4012293219566345,"492":1.3071128129959106,"493":-0.7708287239074707,"494":-0.8522586226463318,"495":1.1004559993743896,"496":0.9935299754142761,"497":2.464043617248535,"498":-0.10320030897855759,"499":-0.07480479776859283,"500":3.749427318572998,"501":0.4889022707939148,"502":0.8850424289703369,"503":1.6843388080596924,"504":2.3242714405059814,"505":0.5359925031661987,"506":0.30842098593711853,"507":-0.7683180570602417,"508":-2.21755313873291,"509":0.9944812059402466,"510":-0.6963415741920471,"511":2.594937801361084,"512":-0.11840032786130905,"513":1.8434799909591675,"514":-0.01622743532061577,"515":0.46345749497413635,"516":-0.3341049551963806,"517":-1.6928620338439941,"518":-1.0618730783462524,"519":0.9010666012763977,"520":0.5571674108505249,"521":0.2724767029285431,"522":-1.5006873607635498,"523":-0.4054243266582489,"524":0.11463040858507156,"525":0.8317259550094604,"526":-0.17383654415607452,"527":0.3923196494579315,"528":1.9276273250579834,"529":1.2048370838165283,"530":0.7353395819664001,"531":3.2760140895843506,"532":2.981907367706299,"533":0.47205883264541626,"534":0.1708967685699463,"535":-1.008396863937378,"536":-1.8586469888687134,"537":2.797390937805176,"538":0.12982435524463654,"539":1.8685083389282227,"540":-0.3850798010826111,"541":2.783501625061035,"542":0.8147640228271484,"543":0.6324220299720764,"544":1.877751350402832,"545":-2.6931309700012207,"546":-1.614203691482544,"547":0.25714585185050964,"548":1.783428430557251,"549":0.17296051979064941,"550":-1.3731770515441895,"551":0.6264626979827881,"552":0.6620937585830688,"553":0.9851738810539246,"554":-0.5060471892356873,"555":-0.6097909808158875,"556":2.3499693870544434,"557":-0.2584213316440582,"558":-0.9860232472419739,"559":3.1266560554504395}},"forgetHidden":{"rows":20,"columns":20,"weights":{"0":-3.396054744720459,"1":0.6219632029533386,"2":1.1737021207809448,"3":-0.6001413464546204,"4":-0.7691016793251038,"5":2.4050121307373047,"6":1.9588137865066528,"7":0.8415742516517639,"8":-0.87130206823349,"9":-0.905876636505127,"10":0.27657580375671387,"11":3.548434019088745,"12":-2.413667917251587,"13":1.4633487462997437,"14":3.495936870574951,"15":-0.04335249587893486,"16":-0.3294738233089447,"17":-0.13553465902805328,"18":1.251356601715088,"19":2.5941431522369385,"20":1.8672162294387817,"21":-1.7027053833007812,"22":1.532078504562378,"23":0.766063928604126,"24":-0.3379501700401306,"25":0.6915117502212524,"26":1.0539534091949463,"27":-0.3670118451118469,"28":2.3170559406280518,"29":1.6696815490722656,"30":0.8786794543266296,"31":0.8417015075683594,"32":-0.3188115954399109,"33":-2.3817033767700195,"34":1.040752649307251,"35":0.09619642049074173,"36":-0.09951853007078171,"37":0.6519142985343933,"38":0.6705054640769958,"39":1.706935167312622,"40":0.6453889012336731,"41":-3.5070297718048096,"42":0.7405580282211304,"43":4.484391212463379,"44":-0.029681110754609108,"45":-0.4101742208003998,"46":-0.1333499401807785,"47":-0.21713151037693024,"48":2.555983781814575,"49":-0.8050590753555298,"50":0.04640025272965431,"51":-0.32796502113342285,"52":0.06630111485719681,"53":-0.2943984270095825,"54":-1.6233035326004028,"55":-0.9866886138916016,"56":1.191612958908081,"57":-0.7937943935394287,"58":-0.7966619729995728,"59":0.6859126687049866,"60":1.1096714735031128,"61":1.7158485651016235,"62":-1.2418245077133179,"63":-0.24365462362766266,"64":-1.0036342144012451,"65":0.33722782135009766,"66":-0.05591685697436333,"67":-2.4396471977233887,"68":-0.8759006261825562,"69":1.0872238874435425,"70":0.6544933915138245,"71":1.2387442588806152,"72":-0.07891549170017242,"73":-0.6254278421401978,"74":-0.23557381331920624,"75":0.30166736245155334,"76":0.12532678246498108,"77":0.8469730615615845,"78":1.0976461172103882,"79":1.2415212392807007,"80":0.7782173752784729,"81":2.9574434757232666,"82":-1.5053497552871704,"83":0.05946357175707817,"84":-0.5691294074058533,"85":1.0419244766235352,"86":0.7735432982444763,"87":1.9767626523971558,"88":-0.1562211513519287,"89":2.4241690635681152,"90":2.1492531299591064,"91":3.052168607711792,"92":-1.709898829460144,"93":1.4680405855178833,"94":0.2264394611120224,"95":-2.3420910835266113,"96":3.4569764137268066,"97":2.656446695327759,"98":1.0369889736175537,"99":1.9518588781356812,"100":0.21620790660381317,"101":-1.0389211177825928,"102":1.1092846393585205,"103":1.4343245029449463,"104":-0.4002532362937927,"105":-0.033142708241939545,"106":0.6412402391433716,"107":-1.68192458152771,"108":-0.7328618168830872,"109":-0.5804936289787292,"110":-0.2609444558620453,"111":-0.4626370370388031,"112":0.9091426134109497,"113":2.795509099960327,"114":-0.9220331907272339,"115":1.4823405742645264,"116":0.6779261231422424,"117":-0.7288061380386353,"118":0.006849755998700857,"119":-0.823123037815094,"120":5.740713596343994,"121":0.7895240187644958,"122":-0.5202013254165649,"123":0.6293617486953735,"124":-1.2832850217819214,"125":-0.10461724549531937,"126":1.2143516540527344,"127":-1.6156312227249146,"128":-1.1116052865982056,"129":-0.11552368849515915,"130":0.8071601390838623,"131":0.22652089595794678,"132":0.7890510559082031,"133":0.5137885808944702,"134":-1.0070527791976929,"135":-0.16156744956970215,"136":0.40508216619491577,"137":-0.17696058750152588,"138":1.0094244480133057,"139":-0.05241219699382782,"140":2.048966646194458,"141":0.9308357834815979,"142":-2.2531867027282715,"143":-1.2689992189407349,"144":-0.008172409608960152,"145":1.4423772096633911,"146":1.1622816324234009,"147":-2.513833999633789,"148":-1.455747127532959,"149":1.7399858236312866,"150":0.5484350323677063,"151":0.6693322658538818,"152":-1.0688010454177856,"153":0.6564612984657288,"154":-0.4284961223602295,"155":-0.14363759756088257,"156":0.970706582069397,"157":1.5908573865890503,"158":-0.3512977957725525,"159":1.0794429779052734,"160":0.31731364130973816,"161":-6.377167224884033,"162":7.4111127853393555,"163":1.1085920333862305,"164":-1.699833869934082,"165":0.5802672505378723,"166":-1.0008410215377808,"167":-1.6866933107376099,"168":7.975447177886963,"169":1.0500527620315552,"170":0.8928811550140381,"171":1.4577395915985107,"172":-1.0201293230056763,"173":-1.5766257047653198,"174":0.4865773618221283,"175":-2.6624717712402344,"176":-0.7990853190422058,"177":1.1974447965621948,"178":4.359395980834961,"179":1.4617172479629517,"180":-0.8342591524124146,"181":2.109666109085083,"182":-2.100148916244507,"183":-0.5792434215545654,"184":-0.7807821035385132,"185":1.8020802736282349,"186":0.24607232213020325,"187":-0.7602517604827881,"188":-0.020462965592741966,"189":2.3042852878570557,"190":2.0218966007232666,"191":1.0308595895767212,"192":-1.4391002655029297,"193":0.014329944737255573,"194":1.6692678928375244,"195":-0.9455698132514954,"196":-0.6309523582458496,"197":-0.004026362672448158,"198":1.2451612949371338,"199":1.4063349962234497,"200":-0.03646527975797653,"201":0.010591949336230755,"202":0.07994378358125687,"203":0.7173388004302979,"204":0.0397685207426548,"205":0.5990817546844482,"206":-1.3249369859695435,"207":2.4064788818359375,"208":0.8057209253311157,"209":0.7050005793571472,"210":-0.3992537260055542,"211":-0.406023234128952,"212":1.178006649017334,"213":-0.4027898609638214,"214":-0.17510871589183807,"215":-0.17399656772613525,"216":0.5899189114570618,"217":0.355527400970459,"218":-0.3848506212234497,"219":0.4183887839317322,"220":-1.4329482316970825,"221":0.09504544734954834,"222":-0.6284508109092712,"223":-0.42483726143836975,"224":-0.2008180469274521,"225":2.923495292663574,"226":0.4638647735118866,"227":-0.18849118053913116,"228":1.3732253313064575,"229":0.585542619228363,"230":0.520804226398468,"231":2.326841115951538,"232":-1.878934383392334,"233":0.09293108433485031,"234":3.4444119930267334,"235":1.5139987468719482,"236":0.08910699188709259,"237":0.7998918294906616,"238":2.0425913333892822,"239":0.7927047610282898,"240":-0.6317707300186157,"241":0.4355536997318268,"242":-1.369140625,"243":0.4663253128528595,"244":-0.8316696882247925,"245":0.2585473656654358,"246":0.38363415002822876,"247":-0.6173996329307556,"248":-0.38001909852027893,"249":0.9611197710037231,"250":-0.3681458830833435,"251":0.6704357266426086,"252":0.19689609110355377,"253":-0.2862847149372101,"254":0.8284257054328918,"255":0.08228476345539093,"256":-0.49031177163124084,"257":-0.0007061075302772224,"258":0.7190739512443542,"259":1.0784239768981934,"260":1.7728517055511475,"261":-2.321988821029663,"262":0.19100987911224365,"263":0.5047181844711304,"264":0.2998650074005127,"265":0.8366451263427734,"266":0.02610166184604168,"267":0.1428479105234146,"268":1.3742080926895142,"269":-0.3059842884540558,"270":0.0153901856392622,"271":0.14940927922725677,"272":0.24762360751628876,"273":-2.3780109882354736,"274":-0.1923653930425644,"275":-1.1381709575653076,"276":-0.4223441779613495,"277":-0.3662493824958801,"278":-0.24312981963157654,"279":-0.27752548456192017,"280":-0.47259554266929626,"281":-0.255045622587204,"282":-0.059537749737501144,"283":0.4851070046424866,"284":0.3702699840068817,"285":-0.09499461203813553,"286":0.5977368950843811,"287":0.09140944480895996,"288":-0.4921393394470215,"289":-1.1776198148727417,"290":0.030442053452134132,"291":-0.2909359931945801,"292":0.13516865670681,"293":0.6313883662223816,"294":-0.32405173778533936,"295":-0.5585851669311523,"296":0.2953721284866333,"297":-0.04488304257392883,"298":-0.6290106773376465,"299":0.05270558223128319,"300":0.702812671661377,"301":0.42633137106895447,"302":-1.9306336641311646,"303":-0.24104739725589752,"304":0.72919100522995,"305":-0.708930492401123,"306":0.5081086158752441,"307":-0.13363704085350037,"308":0.6863614916801453,"309":-0.057359833270311356,"310":1.255976915359497,"311":-0.370743989944458,"312":0.41690436005592346,"313":0.3052809238433838,"314":0.43447038531303406,"315":-2.015366315841675,"316":0.43235617876052856,"317":-1.105363130569458,"318":0.6491527557373047,"319":0.7674838900566101,"320":-0.4301588833332062,"321":0.9493943452835083,"322":-0.9751958847045898,"323":1.2547965049743652,"324":-1.4141721725463867,"325":0.8861333727836609,"326":0.7195786237716675,"327":-0.7340695261955261,"328":-1.4009299278259277,"329":0.9389467239379883,"330":1.3583340644836426,"331":0.9489911794662476,"332":-0.9788384437561035,"333":0.5274596214294434,"334":0.3486221432685852,"335":0.6979205012321472,"336":0.9317163825035095,"337":0.34959855675697327,"338":1.3812488317489624,"339":0.42199888825416565,"340":0.12100629508495331,"341":-0.4008496105670929,"342":-1.0729328393936157,"343":0.5660001635551453,"344":-0.15666446089744568,"345":-0.7737797498703003,"346":1.0326594114303589,"347":-0.7040384411811829,"348":-1.151219129562378,"349":0.21749156713485718,"350":0.21003244817256927,"351":-0.011729680001735687,"352":0.7276208996772766,"353":0.4580257534980774,"354":0.09487557411193848,"355":0.5438952445983887,"356":-1.0164014101028442,"357":-0.6411761045455933,"358":-0.20274214446544647,"359":0.5111187696456909,"360":-0.7081137895584106,"361":1.270903468132019,"362":-1.6186305284500122,"363":-2.9176857471466064,"364":-1.6337487697601318,"365":-0.056390028446912766,"366":-0.10272142291069031,"367":-0.15338897705078125,"368":-1.7082346677780151,"369":-0.12588676810264587,"370":-0.6558006405830383,"371":-0.061588309705257416,"372":-0.2268056869506836,"373":-0.007720084860920906,"374":-0.6207247376441956,"375":-0.27549755573272705,"376":-0.33912229537963867,"377":-0.012237234972417355,"378":0.16389000415802002,"379":-0.5676344633102417,"380":1.407605528831482,"381":-0.5277568101882935,"382":-1.1121394634246826,"383":1.137758731842041,"384":1.1340678930282593,"385":-0.6696919798851013,"386":0.06391726434230804,"387":-0.04231051355600357,"388":0.5889243483543396,"389":0.552362322807312,"390":-0.3517416715621948,"391":-1.067537784576416,"392":-0.9970436096191406,"393":1.0120594501495361,"394":-1.1034657955169678,"395":1.6575427055358887,"396":-0.1329473853111267,"397":0.10918539762496948,"398":-0.13614368438720703,"399":-1.6253708600997925}},"forgetBias":{"rows":20,"columns":1,"weights":{"0":0,"1":0,"2":0,"3":0,"4":0,"5":0,"6":0,"7":0,"8":0,"9":0,"10":0,"11":0,"12":0,"13":0,"14":0,"15":0,"16":0,"17":0,"18":0,"19":0}},"outputMatrix":{"rows":20,"columns":28,"weights":{"0":-1.743028163909912,"1":0.19526571035385132,"2":1.605741262435913,"3":1.1189037561416626,"4":2.1048941612243652,"5":-2.453514337539673,"6":-5.3831634521484375,"7":-2.6590611934661865,"8":3.5622737407684326,"9":-0.8736146092414856,"10":-1.95242178440094,"11":3.31048321723938,"12":-1.9921578168869019,"13":0.6095022559165955,"14":0.35995951294898987,"15":-0.9779565930366516,"16":-1.0469859838485718,"17":-2.496455192565918,"18":0.0530121736228466,"19":2.7816689014434814,"20":-0.8711742758750916,"21":0.05012613907456398,"22":3.8008830547332764,"23":-1.5851109027862549,"24":1.2281056642532349,"25":2.2557783126831055,"26":2.954232931137085,"27":-1.954361915588379,"28":-0.5140512585639954,"29":-1.4148008823394775,"30":-0.9192588925361633,"31":-3.09067702293396,"32":1.2906006574630737,"33":0.7389004826545715,"34":3.674985885620117,"35":-0.04465937614440918,"36":-1.2609617710113525,"37":-0.14881080389022827,"38":3.621166467666626,"39":-3.3929455280303955,"40":1.5587729215621948,"41":0.6908785700798035,"42":0.8846272826194763,"43":3.3204586505889893,"44":0.5552678108215332,"45":-2.176992893218994,"46":0.14614984393119812,"47":-2.4224023818969727,"48":0.23681612312793732,"49":-0.4764324724674225,"50":-2.266648292541504,"51":0.034613847732543945,"52":0.8833923935890198,"53":-1.2830013036727905,"54":-1.9892131090164185,"55":-1.0197988748550415,"56":-0.42260682582855225,"57":1.8050917387008667,"58":-3.5835683345794678,"59":0.5722815990447998,"60":5.574785232543945,"61":-0.024279380217194557,"62":-1.820080041885376,"63":-0.9150932431221008,"64":-0.07663160562515259,"65":1.030717134475708,"66":-3.3158986568450928,"67":2.220161199569702,"68":-2.4513890743255615,"69":-0.14866942167282104,"70":1.8859649896621704,"71":-0.964912474155426,"72":-1.6037236452102661,"73":-0.38419264554977417,"74":0.34539932012557983,"75":0.9597772359848022,"76":-1.098152756690979,"77":-2.74516224861145,"78":-0.784637451171875,"79":-1.6777223348617554,"80":0.4975743591785431,"81":0.5201600193977356,"82":2.2507381439208984,"83":-3.0888607501983643,"84":0.9596633315086365,"85":2.8282477855682373,"86":-5.038825035095215,"87":0.38297969102859497,"88":-0.580797553062439,"89":-0.7680150866508484,"90":0.8322291374206543,"91":-1.3064247369766235,"92":-2.397289752960205,"93":0.8039873242378235,"94":0.6029455661773682,"95":-0.6700959205627441,"96":-1.6466102600097656,"97":-0.7589665055274963,"98":1.2826496362686157,"99":0.3530677556991577,"100":-2.739595413208008,"101":-0.8509395122528076,"102":-0.2373955249786377,"103":-1.880104899406433,"104":-1.9127833843231201,"105":0.07987180352210999,"106":-1.6875102519989014,"107":-0.5403841733932495,"108":-0.3581359088420868,"109":-1.3112562894821167,"110":-3.5546388626098633,"111":0.13227598369121552,"112":0.24215194582939148,"113":-0.524254560470581,"114":-1.8737201690673828,"115":-3.432917594909668,"116":-3.6666665077209473,"117":1.1167188882827759,"118":2.973609209060669,"119":1.9877948760986328,"120":-1.3832279443740845,"121":0.6677878499031067,"122":0.6517297625541687,"123":-0.79222172498703,"124":0.174979105591774,"125":0.644038200378418,"126":0.11057377606630325,"127":2.2508182525634766,"128":0.8576096892356873,"129":-0.46410855650901794,"130":-0.16284595429897308,"131":-1.0267188549041748,"132":0.15259923040866852,"133":1.3931065797805786,"134":-2.156123161315918,"135":0.6220423579216003,"136":1.6578106880187988,"137":-1.7002308368682861,"138":-0.578335702419281,"139":3.7250349521636963,"140":1.863563895225525,"141":2.631669282913208,"142":-1.052000880241394,"143":-0.9061928391456604,"144":-0.31787243485450745,"145":1.1909719705581665,"146":-2.666487693786621,"147":0.6782926321029663,"148":1.0358695983886719,"149":2.990689992904663,"150":-1.1944280862808228,"151":1.8403393030166626,"152":-0.05693153664469719,"153":-2.9107296466827393,"154":0.2571917474269867,"155":1.518345594406128,"156":0.4200150668621063,"157":-2.679792642593384,"158":-0.8852989077568054,"159":1.5830930471420288,"160":1.476707100868225,"161":-0.013038434088230133,"162":0.7216391563415527,"163":-4.890139102935791,"164":0.44054749608039856,"165":-0.32983776926994324,"166":2.266862630844116,"167":1.0913472175598145,"168":2.6603171825408936,"169":-0.35200294852256775,"170":-0.14529384672641754,"171":0.466010719537735,"172":-1.5784116983413696,"173":3.343319892883301,"174":-0.14130479097366333,"175":0.2975301742553711,"176":0.18436351418495178,"177":1.766430377960205,"178":0.43375205993652344,"179":0.5195868015289307,"180":1.4183228015899658,"181":-2.308342218399048,"182":-1.2565125226974487,"183":-0.1008867472410202,"184":1.0223755836486816,"185":0.07915709167718887,"186":-2.9854886531829834,"187":0.21316882967948914,"188":0.6215640306472778,"189":0.5620808601379395,"190":-0.07127602398395538,"191":-2.2641828060150146,"192":2.676490306854248,"193":-0.43574097752571106,"194":0.5789886116981506,"195":2.176028251647949,"196":2.6067075729370117,"197":-0.27150654792785645,"198":0.4623326063156128,"199":-2.5717461109161377,"200":-1.085576057434082,"201":2.613093376159668,"202":0.9957650899887085,"203":1.619083285331726,"204":0.05325767397880554,"205":1.9992308616638184,"206":-1.3983571529388428,"207":3.476700782775879,"208":2.0151853561401367,"209":-2.2771644592285156,"210":-2.4812443256378174,"211":-0.22693751752376556,"212":2.588320016860962,"213":-1.7497209310531616,"214":-0.9417198300361633,"215":-0.16939865052700043,"216":2.3265116214752197,"217":3.723799705505371,"218":0.9445878863334656,"219":-0.9097914099693298,"220":1.639430284500122,"221":0.5400993824005127,"222":-0.19122563302516937,"223":-0.7669858932495117,"224":-0.4280003011226654,"225":0.7694165706634521,"226":0.07073013484477997,"227":0.07719840854406357,"228":0.37566423416137695,"229":-1.060331106185913,"230":2.0024266242980957,"231":-0.8665996193885803,"232":0.5609198808670044,"233":-2.8564581871032715,"234":-0.8298165798187256,"235":-0.12459047138690948,"236":-1.374838948249817,"237":4.873353004455566,"238":0.9401070475578308,"239":-0.024967893958091736,"240":-3.19100284576416,"241":0.025144604966044426,"242":0.7255938649177551,"243":0.4591341018676758,"244":-0.332221657037735,"245":-0.02801639214158058,"246":0.3306654989719391,"247":0.6689814925193787,"248":-4.102681636810303,"249":1.0991469621658325,"250":-0.8955179452896118,"251":-1.1171045303344727,"252":2.8506085872650146,"253":0.8978229761123657,"254":-1.1639102697372437,"255":-0.27848565578460693,"256":-2.760507106781006,"257":1.4543451070785522,"258":1.3664597272872925,"259":1.8602216243743896,"260":-0.580280601978302,"261":1.6044394969940186,"262":-1.2134150266647339,"263":2.4907424449920654,"264":1.1241168975830078,"265":-2.075305938720703,"266":-2.347100019454956,"267":-0.20628654956817627,"268":1.2497034072875977,"269":-0.4429326355457306,"270":-2.8145651817321777,"271":0.3498164117336273,"272":1.1175181865692139,"273":1.3648380041122437,"274":-0.3240889012813568,"275":0.3503994643688202,"276":2.4341557025909424,"277":-2.937412977218628,"278":1.1724122762680054,"279":3.8695144653320312,"280":1.5178548097610474,"281":1.448206901550293,"282":0.46043986082077026,"283":-2.8271644115448,"284":-1.9754639863967896,"285":2.860480308532715,"286":-1.0297783613204956,"287":2.563039779663086,"288":0.7593743801116943,"289":1.2224102020263672,"290":0.21732841432094574,"291":2.093681812286377,"292":2.151000738143921,"293":-2.655618190765381,"294":-1.786448359489441,"295":-0.9016668796539307,"296":1.0851997137069702,"297":-2.883589029312134,"298":-1.4752531051635742,"299":1.4177392721176147,"300":2.3244471549987793,"301":1.5441579818725586,"302":-0.0765664130449295,"303":-1.012711763381958,"304":0.5196302533149719,"305":0.21772778034210205,"306":0.16224493086338043,"307":1.73142671585083,"308":0.3659854531288147,"309":-3.080455780029297,"310":-1.4038950204849243,"311":-3.6759660243988037,"312":-2.290640354156494,"313":0.6459836363792419,"314":-1.4730079174041748,"315":-1.0683906078338623,"316":-1.0330281257629395,"317":1.1705026626586914,"318":1.507425308227539,"319":0.06208493188023567,"320":3.1553449630737305,"321":-1.0276457071304321,"322":-0.6366198658943176,"323":2.8055124282836914,"324":1.5336236953735352,"325":-2.2168753147125244,"326":-1.236085295677185,"327":0.5188840627670288,"328":-2.025836706161499,"329":3.6829075813293457,"330":-0.8747879266738892,"331":0.9536428451538086,"332":2.6896121501922607,"333":-1.16783607006073,"334":-0.7299704551696777,"335":2.6439921855926514,"336":1.6355386972427368,"337":-0.9511638879776001,"338":-4.808043003082275,"339":-0.8803471922874451,"340":0.36080309748649597,"341":1.184535026550293,"342":3.3150675296783447,"343":-0.3171427249908447,"344":-2.5627286434173584,"345":0.7505078315734863,"346":0.4581412672996521,"347":-2.367274284362793,"348":0.09956325590610504,"349":-1.9431118965148926,"350":-1.9226818084716797,"351":-0.3728763461112976,"352":1.0796961784362793,"353":-0.7616820335388184,"354":0.4340656101703644,"355":-2.542682409286499,"356":-0.8177434206008911,"357":-1.0717469453811646,"358":-5.851563930511475,"359":0.1401924341917038,"360":1.764528751373291,"361":-2.826423406600952,"362":-1.6694104671478271,"363":0.09702841192483902,"364":-1.3870270252227783,"365":-1.212063193321228,"366":-1.3279533386230469,"367":2.6386616230010986,"368":2.7220752239227295,"369":-2.3571295738220215,"370":-0.331086128950119,"371":-1.7348284721374512,"372":-1.4108645915985107,"373":-2.0303375720977783,"374":-0.18825791776180267,"375":-0.9765262007713318,"376":-1.5352259874343872,"377":1.0525527000427246,"378":0.5672553777694702,"379":0.5987692475318909,"380":-1.6567178964614868,"381":1.2543752193450928,"382":2.9675686359405518,"383":-0.8397161364555359,"384":-0.956625759601593,"385":-0.6097021102905273,"386":-0.7816364169120789,"387":-0.24584247171878815,"388":-1.6532008647918701,"389":-1.266043782234192,"390":-1.0003135204315186,"391":-2.552903413772583,"392":3.329265832901001,"393":-1.7115789651870728,"394":-2.1730997562408447,"395":-0.924841046333313,"396":-1.2645134925842285,"397":1.8249661922454834,"398":1.259804129600525,"399":2.035545825958252,"400":-0.8293061852455139,"401":3.1460914611816406,"402":0.11509934812784195,"403":-1.0713893175125122,"404":1.1290662288665771,"405":-1.157030463218689,"406":-2.155837297439575,"407":0.16343460977077484,"408":2.5965325832366943,"409":-1.3927903175354004,"410":-1.0708599090576172,"411":-2.2746551036834717,"412":-0.237931028008461,"413":2.3193166255950928,"414":-1.358231782913208,"415":-1.0833381414413452,"416":1.4258708953857422,"417":-1.5163369178771973,"418":0.5281778573989868,"419":1.34693443775177,"420":-2.908994436264038,"421":1.278886079788208,"422":0.9985535740852356,"423":-1.0043648481369019,"424":0.7479425668716431,"425":-2.7071785926818848,"426":-0.04557543620467186,"427":-1.519094705581665,"428":0.6760330200195312,"429":-2.1142899990081787,"430":-0.39652135968208313,"431":1.0785242319107056,"432":-1.0173757076263428,"433":3.324026107788086,"434":3.638807773590088,"435":-0.08683499693870544,"436":-0.7773647308349609,"437":-1.1675432920455933,"438":1.6073529720306396,"439":0.2011685073375702,"440":-0.1460883468389511,"441":-0.2567947208881378,"442":0.4964119791984558,"443":4.22332763671875,"444":-2.973510980606079,"445":1.3079540729522705,"446":0.22831222414970398,"447":-3.137989044189453,"448":3.334791898727417,"449":-0.5282224416732788,"450":-0.28943920135498047,"451":0.04854288697242737,"452":-2.84944486618042,"453":1.7024296522140503,"454":-0.797376275062561,"455":1.0260449647903442,"456":0.8116220831871033,"457":2.210606336593628,"458":-0.6774032115936279,"459":1.596230387687683,"460":2.3182599544525146,"461":-1.982389211654663,"462":-1.9257493019104004,"463":-0.4556312561035156,"464":0.2956710755825043,"465":-1.365251898765564,"466":-2.2872567176818848,"467":-0.0566815547645092,"468":-0.1556844711303711,"469":0.4189144968986511,"470":-0.8034060597419739,"471":-0.20217756927013397,"472":1.093536615371704,"473":-1.9856239557266235,"474":0.05985218659043312,"475":2.9771230220794678,"476":2.0796866416931152,"477":1.3197786808013916,"478":0.09227919578552246,"479":-0.8864540457725525,"480":-0.6227103471755981,"481":3.2206764221191406,"482":-0.14544977247714996,"483":0.24567250907421112,"484":-0.12689343094825745,"485":2.7527010440826416,"486":-0.7045099139213562,"487":0.4821607172489166,"488":0.06473271548748016,"489":-2.2902984619140625,"490":-1.13796865940094,"491":0.5626521110534668,"492":-0.5379652380943298,"493":-0.297598272562027,"494":-0.8011537790298462,"495":0.4437321126461029,"496":1.8385332822799683,"497":-1.3525962829589844,"498":-0.42452219128608704,"499":-4.29621696472168,"500":3.623068332672119,"501":-0.19345280528068542,"502":2.2069404125213623,"503":1.262351155281067,"504":0.7533035278320312,"505":1.3387367725372314,"506":1.2881741523742676,"507":-1.364410638809204,"508":-4.362582683563232,"509":-0.025645017623901367,"510":1.0721646547317505,"511":3.301595687866211,"512":-0.3763583302497864,"513":-0.19052834808826447,"514":2.394346237182617,"515":-0.04854799062013626,"516":1.3850841522216797,"517":1.4209682941436768,"518":0.21444395184516907,"519":0.6611965894699097,"520":1.1281980276107788,"521":0.7912467122077942,"522":-2.919043779373169,"523":-1.170160174369812,"524":-0.8369163870811462,"525":2.846985101699829,"526":3.156165599822998,"527":0.11212873458862305,"528":-0.9220077991485596,"529":2.188384532928467,"530":-0.8371491432189941,"531":5.135168075561523,"532":1.3519856929779053,"533":0.24877046048641205,"534":-0.7136359214782715,"535":-1.268771767616272,"536":-0.9075059294700623,"537":1.1814985275268555,"538":1.2963060140609741,"539":2.3721377849578857,"540":-0.8093279600143433,"541":1.5904353857040405,"542":2.045564651489258,"543":-0.9738481640815735,"544":-1.0233750343322754,"545":-1.27061128616333,"546":-0.6160165667533875,"547":0.5207433104515076,"548":1.906084656715393,"549":1.2086926698684692,"550":-3.194572687149048,"551":0.11840967833995819,"552":-0.10819673538208008,"553":0.5774679183959961,"554":-0.2080896943807602,"555":-0.5483534932136536,"556":1.4765950441360474,"557":-0.9699479341506958,"558":0.40274062752723694,"559":3.7519145011901855}},"outputHidden":{"rows":20,"columns":20,"weights":{"0":-1.0765693187713623,"1":-0.4355059564113617,"2":-0.10274472087621689,"3":0.30906474590301514,"4":0.892817497253418,"5":0.9946821928024292,"6":0.567356526851654,"7":-0.5480577945709229,"8":-0.5706948041915894,"9":0.6987898349761963,"10":0.02494911476969719,"11":1.7402126789093018,"12":-0.18121831119060516,"13":2.541779041290283,"14":0.31754884123802185,"15":1.2406542301177979,"16":0.8819366097450256,"17":1.481494426727295,"18":-0.44579583406448364,"19":0.43989092111587524,"20":1.611576795578003,"21":-1.0038577318191528,"22":1.7036956548690796,"23":-0.6780907511711121,"24":-0.6343781352043152,"25":-0.44635799527168274,"26":1.830289363861084,"27":-1.9377646446228027,"28":0.20172332227230072,"29":2.4625730514526367,"30":0.423919141292572,"31":0.7113272547721863,"32":-0.45412543416023254,"33":-2.1035311222076416,"34":-0.218390554189682,"35":1.5124047994613647,"36":-1.0451937913894653,"37":2.0174856185913086,"38":1.8042564392089844,"39":2.440188407897949,"40":-2.0371904373168945,"41":1.7268989086151123,"42":0.3110277056694031,"43":-2.0485024452209473,"44":-0.4403765797615051,"45":-3.7775673866271973,"46":0.28008776903152466,"47":-3.2443511486053467,"48":1.1662302017211914,"49":2.087676763534546,"50":0.6358428597450256,"51":-1.0279529094696045,"52":0.6288163661956787,"53":-0.4773591458797455,"54":-3.4190995693206787,"55":1.1282137632369995,"56":-1.758068561553955,"57":-0.3771681785583496,"58":0.5898377895355225,"59":0.06874461472034454,"60":-2.1257848739624023,"61":-0.0045273215509951115,"62":1.2047851085662842,"63":-0.4408678114414215,"64":-0.0883602574467659,"65":2.062786817550659,"66":0.9427117109298706,"67":3.4010610580444336,"68":-0.28091102838516235,"69":-1.5832362174987793,"70":0.02508339285850525,"71":-1.8435615301132202,"72":-0.7452642321586609,"73":1.726155400276184,"74":-1.1382168531417847,"75":-0.32688629627227783,"76":-0.8244561553001404,"77":0.16814567148685455,"78":-1.3223170042037964,"79":-0.09775903820991516,"80":-1.3298803567886353,"81":1.9137135744094849,"82":-0.6424936652183533,"83":0.14762423932552338,"84":0.12927161157131195,"85":-0.07661862671375275,"86":-0.8175755739212036,"87":-1.7073302268981934,"88":-0.9754573106765747,"89":-0.8585978746414185,"90":-0.06611872464418411,"91":-0.6209204792976379,"92":0.26204878091812134,"93":0.19043369591236115,"94":-1.5691992044448853,"95":1.4644474983215332,"96":-0.496435284614563,"97":-1.0712915658950806,"98":-1.6133737564086914,"99":-0.4756193161010742,"100":-0.7079519033432007,"101":2.276803493499756,"102":-0.7928069233894348,"103":-1.5251786708831787,"104":2.0615880489349365,"105":-1.308212399482727,"106":-2.496030330657959,"107":3.852119207382202,"108":-1.6108039617538452,"109":0.27365344762802124,"110":0.0371476449072361,"111":-3.843201160430908,"112":3.4468376636505127,"113":0.22152672708034515,"114":-0.9180217385292053,"115":-0.9821642637252808,"116":-0.6936476230621338,"117":-2.362337112426758,"118":-1.7790930271148682,"119":-1.9254573583602905,"120":-1.500219702720642,"121":-0.9913304448127747,"122":-0.76227205991745,"123":1.073462963104248,"124":0.08397740125656128,"125":-0.6913402676582336,"126":0.5537734627723694,"127":1.8562027215957642,"128":-0.427754670381546,"129":-1.672715663909912,"130":-0.4293918311595917,"131":-1.2202790975570679,"132":0.3071277141571045,"133":0.0689711943268776,"134":-2.126795530319214,"135":-2.1388328075408936,"136":-1.5331743955612183,"137":1.1502405405044556,"138":-0.42617830634117126,"139":0.916466474533081,"140":0.7340816259384155,"141":-0.268548846244812,"142":0.8700708746910095,"143":-0.3324038088321686,"144":-0.8675866723060608,"145":-0.9531629681587219,"146":0.8416488766670227,"147":-0.13645733892917633,"148":0.8797073364257812,"149":0.885086715221405,"150":-0.4819212555885315,"151":-0.667099118232727,"152":1.2269102334976196,"153":-0.40324240922927856,"154":-0.7480619549751282,"155":-1.2413744926452637,"156":-0.17882639169692993,"157":1.1429264545440674,"158":1.3155715465545654,"159":-0.1494511216878891,"160":0.25580933690071106,"161":-1.0037190914154053,"162":-0.3617677390575409,"163":3.6371712684631348,"164":2.941178798675537,"165":-0.12507639825344086,"166":1.463595986366272,"167":-0.92601078748703,"168":-0.37698033452033997,"169":0.22269167006015778,"170":0.7583509087562561,"171":-1.1079909801483154,"172":-1.1083685159683228,"173":4.658631324768066,"174":1.305219054222107,"175":0.13287651538848877,"176":4.817246437072754,"177":0.25955677032470703,"178":0.3092588186264038,"179":-0.10558212548494339,"180":-0.0727510079741478,"181":1.8030242919921875,"182":-1.9936212301254272,"183":-1.2975518703460693,"184":-0.385051965713501,"185":0.2560429573059082,"186":1.6695586442947388,"187":0.4802258610725403,"188":-2.9145443439483643,"189":-1.050855278968811,"190":-2.140282154083252,"191":-1.7377771139144897,"192":1.8468528985977173,"193":1.7238062620162964,"194":-0.8457030653953552,"195":1.7144306898117065,"196":-1.1475565433502197,"197":1.154913306236267,"198":0.7003111243247986,"199":-0.49574515223503113,"200":-0.5301531553268433,"201":-0.81175297498703,"202":1.270272970199585,"203":0.5388121008872986,"204":0.30279800295829773,"205":1.0254384279251099,"206":0.06423874944448471,"207":1.896127700805664,"208":1.2567557096481323,"209":1.248201608657837,"210":-0.3748936653137207,"211":1.0012506246566772,"212":-0.5227229595184326,"213":0.3012216091156006,"214":1.1117076873779297,"215":-2.3482890129089355,"216":-0.8970292806625366,"217":0.4169173836708069,"218":-0.3056226372718811,"219":0.1691160947084427,"220":-1.252407431602478,"221":-0.38214707374572754,"222":-0.4633414149284363,"223":-0.9779479503631592,"224":0.43195855617523193,"225":0.5713496208190918,"226":-2.432288646697998,"227":0.6287429332733154,"228":1.1978559494018555,"229":2.124952793121338,"230":-0.8066834807395935,"231":-0.24840590357780457,"232":-1.0831258296966553,"233":-0.8199728727340698,"234":1.151684284210205,"235":-1.2209700345993042,"236":-1.7091790437698364,"237":-0.4795236885547638,"238":0.12802478671073914,"239":-1.9306095838546753,"240":-0.21715039014816284,"241":-0.36538946628570557,"242":0.46640676259994507,"243":-1.3508026599884033,"244":0.34274959564208984,"245":1.1683603525161743,"246":-1.8565828800201416,"247":1.88763427734375,"248":0.43419399857521057,"249":1.551566481590271,"250":-0.3522610068321228,"251":-0.03839005157351494,"252":-1.9434174299240112,"253":1.0288137197494507,"254":1.500366449356079,"255":-1.1380622386932373,"256":-2.92307448387146,"257":0.9785966277122498,"258":0.2623748779296875,"259":0.3928306996822357,"260":1.2942829132080078,"261":-1.105594515800476,"262":-0.585047721862793,"263":1.176814317703247,"264":0.0847976878285408,"265":-0.3240160346031189,"266":0.5455320477485657,"267":-1.5115485191345215,"268":-0.5147984623908997,"269":-0.0210200697183609,"270":0.42216232419013977,"271":-0.4606952369213104,"272":0.5913605093955994,"273":-0.5952242016792297,"274":0.8302656412124634,"275":1.7092862129211426,"276":2.4658656120300293,"277":0.13055896759033203,"278":0.4755024015903473,"279":-1.488660216331482,"280":1.5439790487289429,"281":-0.13763472437858582,"282":-1.1292527914047241,"283":0.7596129775047302,"284":0.35217592120170593,"285":-0.5938576459884644,"286":0.5972156524658203,"287":-4.109527587890625,"288":1.620749831199646,"289":-0.013206849806010723,"290":1.9561108350753784,"291":0.12053707987070084,"292":1.2849329710006714,"293":-2.252501964569092,"294":-0.06230543181300163,"295":-1.0735260248184204,"296":0.11897546797990799,"297":-1.42251455783844,"298":-1.1886485815048218,"299":0.36896035075187683,"300":0.49685004353523254,"301":1.4635505676269531,"302":2.381591320037842,"303":-0.2840372920036316,"304":-2.0783722400665283,"305":-0.4686877727508545,"306":0.3947603404521942,"307":-3.7357378005981445,"308":0.9964309930801392,"309":1.103327989578247,"310":1.3962719440460205,"311":1.8636542558670044,"312":-1.378461480140686,"313":0.3402075469493866,"314":0.9447458982467651,"315":-1.1424084901809692,"316":0.31105104088783264,"317":-0.23003190755844116,"318":2.0922443866729736,"319":0.40055498480796814,"320":0.840071976184845,"321":0.4106522798538208,"322":0.6064770817756653,"323":1.2059814929962158,"324":1.0531443357467651,"325":-0.9177718758583069,"326":0.2890229821205139,"327":0.2219855934381485,"328":-0.9181559085845947,"329":-1.0502833127975464,"330":0.4525216817855835,"331":-2.16552996635437,"332":-0.8912481069564819,"333":2.205003023147583,"334":-0.8720238208770752,"335":0.12800028920173645,"336":1.288291096687317,"337":-0.9610344171524048,"338":-1.2791143655776978,"339":-1.989227294921875,"340":-2.0131537914276123,"341":-1.2298178672790527,"342":0.7509655952453613,"343":-0.6778594851493835,"344":2.6341612339019775,"345":-2.2277729511260986,"346":-3.474167585372925,"347":1.7560813426971436,"348":0.43423402309417725,"349":-2.4565651416778564,"350":-1.2871308326721191,"351":-3.630380630493164,"352":0.8234013319015503,"353":1.7195814847946167,"354":-1.895174503326416,"355":-6.853591442108154,"356":1.3170925378799438,"357":0.7230970859527588,"358":-4.682827472686768,"359":-2.465984344482422,"360":-0.7733429670333862,"361":1.4544718265533447,"362":-0.3821465075016022,"363":-0.7180812358856201,"364":-1.306512475013733,"365":0.5002011060714722,"366":0.460019052028656,"367":-0.42449232935905457,"368":-0.0521371066570282,"369":1.3898489475250244,"370":0.08396178483963013,"371":-0.22203315794467926,"372":0.6804085969924927,"373":0.753865659236908,"374":-0.1315658986568451,"375":-0.3593546748161316,"376":0.5032286643981934,"377":0.40376535058021545,"378":0.16793332993984222,"379":0.7244884371757507,"380":-1.212087631225586,"381":-2.9344425201416016,"382":-2.9884064197540283,"383":2.747004508972168,"384":6.382306098937988,"385":-3.7427818775177,"386":-1.8709524869918823,"387":2.9119768142700195,"388":0.4087919294834137,"389":-4.10398006439209,"390":-1.247437596321106,"391":-3.9561946392059326,"392":-1.9690343141555786,"393":4.535139560699463,"394":-2.2360739707946777,"395":-2.5253853797912598,"396":1.1838709115982056,"397":-0.1161239817738533,"398":-8.102991104125977,"399":-4.524322986602783}},"outputBias":{"rows":20,"columns":1,"weights":{"0":-0.28578993678092957,"1":-1.2718929052352905,"2":-0.562186062335968,"3":-0.5548966526985168,"4":-0.29575878381729126,"5":-1.4390000104904175,"6":-0.982293963432312,"7":-0.2541128695011139,"8":0.38664335012435913,"9":-0.34076759219169617,"10":-0.6696431040763855,"11":-0.33210131525993347,"12":-0.6790666580200195,"13":0.3753648102283478,"14":-0.28708022832870483,"15":-1.484936237335205,"16":-2.7529587745666504,"17":-0.7777743339538574,"18":-1.273725986480713,"19":-0.6494741439819336}},"cellActivationMatrix":{"rows":20,"columns":28,"weights":{"0":2.0271949768066406,"1":1.5655014514923096,"2":1.0516200065612793,"3":-0.15980492532253265,"4":-0.4693686366081238,"5":2.2308766841888428,"6":-1.4551886320114136,"7":2.9190361499786377,"8":0.39414355158805847,"9":-0.27100324630737305,"10":-0.6745990514755249,"11":2.9136579036712646,"12":1.0830589532852173,"13":-1.3354295492172241,"14":-2.0748167037963867,"15":-0.7480379343032837,"16":0.2140081524848938,"17":-1.1037256717681885,"18":0.7227296233177185,"19":0.9941515922546387,"20":-0.05837223306298256,"21":2.647566556930542,"22":1.69399893283844,"23":-0.171772301197052,"24":0.8891522884368896,"25":0.5690618753433228,"26":1.7566686868667603,"27":0.9703149795532227,"28":-0.1990726888179779,"29":2.0540857315063477,"30":1.7956076860427856,"31":0.05946408957242966,"32":1.3927264213562012,"33":-0.301623672246933,"34":-2.1600563526153564,"35":-0.4638976454734802,"36":3.0387461185455322,"37":0.8538199067115784,"38":-0.5922850966453552,"39":2.385983467102051,"40":1.0850133895874023,"41":0.4049786925315857,"42":1.1831879615783691,"43":-0.19218136370182037,"44":-0.16036376357078552,"45":0.8416011929512024,"46":0.5143194794654846,"47":0.4900246262550354,"48":0.8524397611618042,"49":-1.0814470052719116,"50":1.8866430521011353,"51":-0.4880503714084625,"52":-1.1502825021743774,"53":0.9875882267951965,"54":0.8512498140335083,"55":-0.19469478726387024,"56":-0.7521244883537292,"57":0.7553992867469788,"58":-0.05593524128198624,"59":3.8941009044647217,"60":1.215616226196289,"61":0.6771314740180969,"62":-0.7989239692687988,"63":-3.3280813694000244,"64":0.210302472114563,"65":-2.4671831130981445,"66":0.7568039298057556,"67":-0.6836424469947815,"68":1.1312628984451294,"69":0.22264893352985382,"70":1.6368101835250854,"71":-0.8565084934234619,"72":1.9700140953063965,"73":3.27880597114563,"74":0.8117382526397705,"75":0.6270206570625305,"76":1.7792844772338867,"77":-1.9345979690551758,"78":0.5831729173660278,"79":-0.9120936393737793,"80":-1.2594350576400757,"81":0.919291079044342,"82":-1.036438226699829,"83":-1.4938234090805054,"84":0.49356696009635925,"85":0.38456547260284424,"86":-2.0131173133850098,"87":-0.7070788741111755,"88":-0.06740987300872803,"89":1.3693511486053467,"90":0.8006910085678101,"91":1.444918155670166,"92":-1.9928441047668457,"93":0.18646642565727234,"94":0.18313945829868317,"95":-0.9227867722511292,"96":0.006036047823727131,"97":-1.291572093963623,"98":-0.3514963984489441,"99":0.6942018270492554,"100":1.3204305171966553,"101":0.23805905878543854,"102":-0.3959515690803528,"103":-1.974654197692871,"104":-1.8449163436889648,"105":0.7934349179267883,"106":-2.8929672241210938,"107":-1.636708378791809,"108":1.047522783279419,"109":-1.786698818206787,"110":-0.395986407995224,"111":-0.38463735580444336,"112":-0.21090281009674072,"113":0.8798075914382935,"114":-0.03514797240495682,"115":1.1830527782440186,"116":-1.1097490787506104,"117":-0.3755667507648468,"118":0.3185625374317169,"119":-0.86446213722229,"120":-0.018088584765791893,"121":0.3509460985660553,"122":2.4271609783172607,"123":-0.2730145752429962,"124":0.5413245558738708,"125":0.4960240423679352,"126":-0.3667497932910919,"127":-0.46457919478416443,"128":0.1141100823879242,"129":0.7721449732780457,"130":0.7627487778663635,"131":0.2746022343635559,"132":-0.20744425058364868,"133":-0.9269391298294067,"134":0.14361052215099335,"135":0.13125886023044586,"136":-1.1787956953048706,"137":0.3708820939064026,"138":-0.3646823763847351,"139":2.85154390335083,"140":-0.3359162509441376,"141":-0.39458879828453064,"142":-1.9591517448425293,"143":3.419445753097534,"144":0.11688884347677231,"145":-0.2689513862133026,"146":1.4037812948226929,"147":0.221342995762825,"148":-1.6753689050674438,"149":-0.3923763334751129,"150":0.6568241715431213,"151":-0.7889655232429504,"152":-1.963944435119629,"153":-0.08251754194498062,"154":0.8666406869888306,"155":0.21944408118724823,"156":-0.5421489477157593,"157":1.8754699230194092,"158":0.9684768915176392,"159":-0.8575043082237244,"160":-0.20144635438919067,"161":-2.3266196250915527,"162":-0.6243108510971069,"163":-0.14586259424686432,"164":-1.4443107843399048,"165":-0.7761799693107605,"166":-0.3505748510360718,"167":-0.2361270934343338,"168":2.094078540802002,"169":1.3349182605743408,