{"type":"LSTMTimeStep","options":{"inputSize":1,"hiddenLayers":[20],"outputSize":1,"decayRate":0.999,"smoothEps":1e-8,"regc":0.000001,"clipval":5},"hiddenLayers":[{"inputMatrix":{"rows":20,"columns":1,"weights":{"0":0.2882607877254486,"1":-0.6561364531517029,"2":0.4382046163082123,"3":-0.24722060561180115,"4":0.09304618835449219,"5":-0.0744302049279213,"6":0.34913960099220276,"7":-0.5899428129196167,"8":-0.7555028796195984,"9":-0.6244338750839233,"10":0.19098182022571564,"11":-0.5793896317481995,"12":-0.6490402817726135,"13":-0.5545966029167175,"14":-0.5750088095664978,"15":-0.5999614000320435,"16":-0.5011439323425293,"17":0.3175329566001892,"18":-0.8597071170806885,"19":0.22753146290779114}},"inputHidden":{"rows":20,"columns":20,"weights":{"0":0.08043446391820908,"1":-0.32673174142837524,"2":0.1878298819065094,"3":0.010529263876378536,"4":-1.3422284126281738,"5":0.17571744322776794,"6":-0.13355384767055511,"7":0.3251158595085144,"8":-0.2616925835609436,"9":-0.2988062798976898,"10":0.9999829530715942,"11":0.03810577094554901,"12":-0.3434940278530121,"13":-0.20274293422698975,"14":0.24485506117343903,"15":0.3027525246143341,"16":-0.2800394594669342,"17":-0.49284827709198,"18":0.24924390017986298,"19":1.7336854934692383,"20":-0.30157408118247986,"21":-0.14771009981632233,"22":0.23538324236869812,"23":0.17060665786266327,"24":-0.28944888710975647,"25":-0.23237764835357666,"26":-0.30613309144973755,"27":0.23088416457176208,"28":-0.350056529045105,"29":-0.31948035955429077,"30":-0.16703596711158752,"31":0.26699507236480713,"32":-0.2739473283290863,"33":-0.16528944671154022,"34":0.18768800795078278,"35":0.1783813238143921,"36":-0.1965533047914505,"37":0.2830110788345337,"38":0.3485347628593445,"39":-0.30421945452690125,"40":-0.38947153091430664,"41":-0.2572908103466034,"42":0.1875782608985901,"43":0.2333906590938568,"44":-0.13224166631698608,"45":-0.2203034907579422,"46":-0.2834267020225525,"47":0.30868223309516907,"48":-0.3143754005432129,"49":-0.27336686849594116,"50":-0.2650578022003174,"51":0.3118232786655426,"52":-0.2099614441394806,"53":-0.24458441138267517,"54":0.28841298818588257,"55":0.20770443975925446,"56":-0.16807274520397186,"57":0.2838384211063385,"58":0.2775176465511322,"59":-0.24802178144454956,"60":-1.319303274154663,"61":-0.2240496128797531,"62":2.813143491744995,"63":1.1954282522201538,"64":0.01767774485051632,"65":-1.0447732210159302,"66":-1.1867194175720215,"67":0.30406561493873596,"68":-0.22690998017787933,"69":-0.33883318305015564,"70":-3.699399709701538,"71":0.27952536940574646,"72":-0.26075032353401184,"73":-0.25369390845298767,"74":0.21665720641613007,"75":0.2837980091571808,"76":-0.31254589557647705,"77":1.2213022708892822,"78":0.3119348883628845,"79":5.233292102813721,"80":0.7361217141151428,"81":-0.2993450164794922,"82":0.4081963002681732,"83":-1.4631123542785645,"84":-0.781380832195282,"85":1.3353708982467651,"86":0.7738064527511597,"87":0.3541601598262787,"88":-0.2544902265071869,"89":-0.3471434712409973,"90":2.5428307056427,"91":0.2534404397010803,"92":-0.29906052350997925,"93":-0.2158059924840927,"94":0.20900976657867432,"95":0.31604042649269104,"96":-0.2378227561712265,"97":-0.9941426515579224,"98":0.30441203713417053,"99":-0.14579607546329498,"100":-2.2616260051727295,"101":-0.25985053181648254,"102":3.7865898609161377,"103":1.4708728790283203,"104":0.23779603838920593,"105":-1.8140761852264404,"106":-2.1012511253356934,"107":0.32499876618385315,"108":-0.2983323037624359,"109":-0.2627674341201782,"110":-4.153594493865967,"111":0.35802391171455383,"112":-0.32215455174446106,"113":-0.19643938541412354,"114":0.30412986874580383,"115":0.1716451644897461,"116":-0.18179161846637726,"117":2.1379616260528564,"118":0.23717983067035675,"119":4.896549701690674,"120":0.5665189027786255,"121":-0.2915760576725006,"122":0.0875590443611145,"123":-0.2033381313085556,"124":-1.4889768362045288,"125":0.4276669919490814,"126":0.22094283998012543,"127":0.31062230467796326,"128":-0.15512824058532715,"129":-0.22635599970817566,"130":0.9748459458351135,"131":0.01979605108499527,"132":-0.24348853528499603,"133":-0.2667030394077301,"134":0.2775993049144745,"135":0.20790036022663116,"136":-0.20138368010520935,"137":-0.7619752883911133,"138":0.24139505624771118,"139":1.8282283544540405,"140":0.27423062920570374,"141":0.30967313051223755,"142":-0.22425684332847595,"143":-0.31658434867858887,"144":0.22304172813892365,"145":0.329056054353714,"146":0.22944484651088715,"147":0.3756783604621887,"148":-0.5233249664306641,"149":-0.028780071064829826,"150":0.81010502576828,"151":-0.582854688167572,"152":0.7910060286521912,"153":0.22022640705108643,"154":-0.22814799845218658,"155":-0.2602482736110687,"156":0.23204517364501953,"157":-0.26380324363708496,"158":-0.008027992211282253,"159":-0.14882589876651764,"160":0.5639210343360901,"161":0.1764548420906067,"162":-0.2975459694862366,"163":-0.24531596899032593,"164":0.22383444011211395,"165":0.30138030648231506,"166":0.5195580720901489,"167":-0.13147728145122528,"168":0.13490000367164612,"169":0.08774590492248535,"170":1.1119036674499512,"171":-0.18374767899513245,"172":0.07234297692775726,"173":0.1888720691204071,"174":-0.26035675406455994,"175":-0.27169206738471985,"176":0.27654317021369934,"177":-0.32698729634284973,"178":-0.20986586809158325,"179":-0.14355899393558502,"180":0.3248888850212097,"181":0.21958786249160767,"182":-0.2244958132505417,"183":-0.27526620030403137,"184":0.24152934551239014,"185":0.3486080765724182,"186":0.341063916683197,"187":0.4374406039714813,"188":-0.4807386100292206,"189":-0.24307799339294434,"190":0.9811651706695557,"191":0.7159150838851929,"192":-0.763542890548706,"193":0.19234880805015564,"194":-0.23558345437049866,"195":-0.2392766773700714,"196":0.2919785678386688,"197":-0.337446391582489,"198":0.5115797519683838,"199":-0.8226045966148376,"200":-1.2486813068389893,"201":-0.21751311421394348,"202":-0.6306506395339966,"203":4.249351978302002,"204":-2.9080755710601807,"205":-4.356758117675781,"206":-1.5978270769119263,"207":0.6371660232543945,"208":-0.21099671721458435,"209":-0.5872409343719482,"210":5.302933216094971,"211":0.20001809298992157,"212":-0.4057939052581787,"213":-0.22518406808376312,"214":0.2342478334903717,"215":0.21553634107112885,"216":-0.14391379058361053,"217":-6.157083988189697,"218":0.5632713437080383,"219":-2.906095027923584,"220":-0.3199307918548584,"221":0.2793467044830322,"222":-0.21088238060474396,"223":-0.27031466364860535,"224":1.4956609010696411,"225":0.34273144602775574,"226":-0.17098918557167053,"227":-0.19438494741916656,"228":-0.2386195957660675,"229":0.04308941215276718,"230":1.1714507341384888,"231":-1.8864175081253052,"232":-0.20029371976852417,"233":0.29594606161117554,"234":-0.2520061135292053,"235":-0.30892398953437805,"236":0.2494962364435196,"237":0.9682627320289612,"238":-0.10169424116611481,"239":-1.5980384349822998,"240":0.5647608637809753,"241":0.2867507040500641,"242":-0.33950382471084595,"243":-0.2944795489311218,"244":0.21488402783870697,"245":0.3104042708873749,"246":0.6975061297416687,"247":-0.2424755096435547,"248":0.004658617079257965,"249":0.17450346052646637,"250":1.1904497146606445,"251":0.3155873715877533,"252":-0.12094622105360031,"253":0.2717515826225281,"254":-0.25682735443115234,"255":-0.3452920615673065,"256":0.23961251974105835,"257":-0.3372773826122284,"258":-0.20533183217048645,"259":-0.3369084298610687,"260":-0.2859370708465576,"261":-0.2761300504207611,"262":0.28064534068107605,"263":0.29816973209381104,"264":-0.28050339221954346,"265":-0.1677522212266922,"266":-0.3015955090522766,"267":0.24873310327529907,"268":-0.29651668667793274,"269":-0.3063603937625885,"270":-0.16262342035770416,"271":0.305474191904068,"272":-0.19881482422351837,"273":-0.24100059270858765,"274":0.27739521861076355,"275":0.21135833859443665,"276":-0.1460968554019928,"277":0.18718776106834412,"278":0.35373714566230774,"279":-0.2706044316291809,"280":-0.31487134099006653,"281":-0.28521108627319336,"282":0.21533147990703583,"283":0.2503783702850342,"284":-0.2847335934638977,"285":-0.2111833542585373,"286":-0.326099157333374,"287":0.22521214187145233,"288":-0.34443414211273193,"289":-0.3324691653251648,"290":-0.25769323110580444,"291":0.2630699872970581,"292":-0.32971787452697754,"293":-0.2694552540779114,"294":0.22108708322048187,"295":0.16606366634368896,"296":-0.19870726764202118,"297":0.19750455021858215,"298":0.22624804079532623,"299":-0.3053556978702545,"300":-0.22811956703662872,"301":-0.15843090415000916,"302":0.29903802275657654,"303":0.26611873507499695,"304":-0.18609119951725006,"305":-0.17056800425052643,"306":-0.20689639449119568,"307":0.30469074845314026,"308":-0.37718436121940613,"309":-0.26998257637023926,"310":-0.21418055891990662,"311":0.35686999559402466,"312":-0.2806228697299957,"313":-0.22480668127536774,"314":0.19209003448486328,"315":0.28985595703125,"316":-0.23332718014717102,"317":0.2163497656583786,"318":0.30221304297447205,"319":-0.2990531921386719,"320":-0.2734300494194031,"321":-0.3022657334804535,"322":0.23651288449764252,"323":0.24323704838752747,"324":-0.2960929870605469,"325":-0.25670215487480164,"326":-0.25708678364753723,"327":0.2582930624485016,"328":-0.27416667342185974,"329":-0.25507330894470215,"330":-0.09228456020355225,"331":0.33866918087005615,"332":-0.29717862606048584,"333":-0.19472701847553253,"334":0.2208101451396942,"335":0.2527454197406769,"336":-0.2660810649394989,"337":0.1940014809370041,"338":0.29276084899902344,"339":-0.3310156464576721,"340":0.6909139156341553,"341":-0.20150525867938995,"342":2.5634450912475586,"343":-0.06322701275348663,"344":-1.5956698656082153,"345":0.012539217248558998,"346":0.6063029170036316,"347":0.24268148839473724,"348":-0.30347177386283875,"349":-0.23301003873348236,"350":1.483936071395874,"351":0.3098919987678528,"352":-0.28923046588897705,"353":-0.18911871314048767,"354":0.2784368097782135,"355":0.23672209680080414,"356":-0.20471636950969696,"357":-0.6341797709465027,"358":0.25560450553894043,"359":1.0903170108795166,"360":0.5149586796760559,"361":0.2732628583908081,"362":-0.2991524040699005,"363":-0.21537037193775177,"364":0.2699154019355774,"365":0.25431665778160095,"366":0.3965528905391693,"367":0.42164528369903564,"368":-0.27070149779319763,"369":0.03789106383919716,"370":0.9332187175750732,"371":0.6236131191253662,"372":-0.6278017163276672,"373":0.26269465684890747,"374":-0.3210924565792084,"375":-0.3053435683250427,"376":0.3456363081932068,"377":-0.279380738735199,"378":0.24974575638771057,"379":-1.0919252634048462,"380":1.359903335571289,"381":0.3102777898311615,"382":-0.5561540722846985,"383":-1.0459476709365845,"384":-1.5620710849761963,"385":-0.037307702004909515,"386":1.3809932470321655,"387":0.5238330364227295,"388":-2.027117967605591,"389":-0.5939370393753052,"390":2.770207643508911,"391":-0.034758783876895905,"392":-0.5294697284698486,"393":0.30110716819763184,"394":-0.30278798937797546,"395":-0.24726638197898865,"396":0.30252522230148315,"397":-0.9432612657546997,"398":0.3203235864639282,"399":-0.2724686861038208}},"inputBias":{"rows":20,"columns":1,"weights":{"0":-1.814438819885254,"1":-0.4769406318664551,"2":0.9255880117416382,"3":-0.6510000824928284,"4":-4.55347204208374,"5":0.03129541873931885,"6":-3.355041980743408,"7":-1.683186650276184,"8":-0.5124716758728027,"9":-0.6587989330291748,"10":-4.541337490081787,"11":1.1895049810409546,"12":-1.176464319229126,"13":-0.4427240192890167,"14":-0.41969120502471924,"15":-0.304419606924057,"16":-0.27280381321907043,"17":-3.247898578643799,"18":-0.7947285771369934,"19":4.448714733123779}},"forgetMatrix":{"rows":20,"columns":1,"weights":{"0":-0.6564324498176575,"1":-0.5177347660064697,"2":-0.4287146031856537,"3":-0.1961953341960907,"4":-0.8808496594429016,"5":-0.15659767389297485,"6":-0.6204217076301575,"7":-0.5470762252807617,"8":0.42526891827583313,"9":-0.36824628710746765,"10":0.5348447561264038,"11":-0.8459407687187195,"12":-0.6086176037788391,"13":-0.44898805022239685,"14":-0.44760170578956604,"15":-0.4973125159740448,"16":-0.4207870066165924,"17":-0.8131195306777954,"18":-0.6653335690498352,"19":-0.9453244805335999}},"forgetHidden":{"rows":20,"columns":20,"weights":{"0":-0.07851282507181168,"1":-0.1048223003745079,"2":0.16028626263141632,"3":0.06886260956525803,"4":-0.9150603413581848,"5":-0.14068439602851868,"6":-0.13486255705356598,"7":0.2737376391887665,"8":-0.3011090159416199,"9":-0.30685293674468994,"10":-0.22274205088615417,"11":0.100213423371315,"12":-0.24436938762664795,"13":-0.14271429181098938,"14":0.07248436659574509,"15":0.15997746586799622,"16":-0.15048231184482574,"17":-5.308631896972656,"18":0.3135705292224884,"19":1.513440489768982,"20":-0.06359051913022995,"21":-0.03614301607012749,"22":0.03995839133858681,"23":0.03266078233718872,"24":-0.1175987645983696,"25":-0.08001520484685898,"26":-0.08709895610809326,"27":0.16243436932563782,"28":-0.12064847350120544,"29":-0.1915321946144104,"30":-0.05106287822127342,"31":0.1476794183254242,"32":-0.09518630057573318,"33":0.006938716862350702,"34":0.011970283463597298,"35":0.09309333562850952,"36":-0.09426990151405334,"37":0.06751364469528198,"38":0.11029436439275742,"39":-0.1261661797761917,"40":0.45549237728118896,"41":-0.02247779257595539,"42":-0.6875607967376709,"43":-0.6172077655792236,"44":-0.7613402605056763,"45":0.5720911622047424,"46":0.5014193058013916,"47":0.13334663212299347,"48":-0.23259292542934418,"49":-0.1423196941614151,"50":0.7366780638694763,"51":0.23713399469852448,"52":-0.08837956190109253,"53":-0.0571817047894001,"54":0.040651462972164154,"55":0.08728141337633133,"56":-0.1234353631734848,"57":-0.516817569732666,"58":0.21113760769367218,"59":-0.7467108368873596,"60":-0.829301118850708,"61":-0.0801139548420906,"62":-5.750364780426025,"63":-0.1277918964624405,"64":1.3338091373443604,"65":1.0408331155776978,"66":-0.8257297873497009,"67":0.2533290684223175,"68":-0.20350651443004608,"69":-0.23828795552253723,"70":0.11200962960720062,"71":0.1253310739994049,"72":-0.18642592430114746,"73":-0.13583898544311523,"74":0.05441659316420555,"75":0.016190901398658752,"76":-0.04414714127779007,"77":0.6799429059028625,"78":0.14266584813594818,"79":0.22980353236198425,"80":0.4158226549625397,"81":-0.11379889398813248,"82":0.14958272874355316,"83":0.10469699651002884,"84":-0.21937404572963715,"85":-0.14459888637065887,"86":0.4112666845321655,"87":0.27100056409835815,"88":-0.20658881962299347,"89":-0.2346183806657791,"90":0.16855302453041077,"91":0.1642370969057083,"92":-0.10999874025583267,"93":-0.07637392729520798,"94":0.09231417626142502,"95":0.03787195309996605,"96":-0.06536945700645447,"97":-0.3899845778942108,"98":0.21191662549972534,"99":0.2656581401824951,"100":-0.4189355969429016,"101":-0.09953522682189941,"102":-6.865087032318115,"103":-0.4291536211967468,"104":1.0318379402160645,"105":0.8631426095962524,"106":-0.39703837037086487,"107":0.23033887147903442,"108":-0.20067885518074036,"109":-0.1464458703994751,"110":0.346912682056427,"111":0.2423747032880783,"112":-0.09697571396827698,"113":-0.05362456291913986,"114":0.03499933332204819,"115":0.0971231609582901,"116":-0.1385200321674347,"117":0.1699099838733673,"118":0.17157939076423645,"119":-0.8311830163002014,"120":0.9113481044769287,"121":-0.20291362702846527,"122":0.1052737608551979,"123":0.07716958224773407,"124":-1.358694076538086,"125":-0.07993515580892563,"126":0.6559861898422241,"127":0.27055925130844116,"128":-0.2259695827960968,"129":-0.20018650591373444,"130":0.13470830023288727,"131":0.2918381989002228,"132":-0.2451120913028717,"133":-0.19401217997074127,"134":0.17554759979248047,"135":0.1382841318845749,"136":-0.13440139591693878,"137":-5.670180797576904,"138":0.2229892462491989,"139":1.4714500904083252,"140":0.3088545501232147,"141":0.13649143278598785,"142":-0.22060129046440125,"143":-0.3028581738471985,"144":0.2337602972984314,"145":0.32883378863334656,"146":0.21686425805091858,"147":0.14725595712661743,"148":-0.11544999480247498,"149":-0.12161208689212799,"150":0.5949699878692627,"151":0.16224732995033264,"152":-0.13636144995689392,"153":0.19919468462467194,"154":-0.21650809049606323,"155":-0.2789779305458069,"156":0.28705570101737976,"157":-0.22791287302970886,"158":0.17347198724746704,"159":-0.10596362501382828,"160":0.23336705565452576,"161":0.18818822503089905,"162":-0.2166496366262436,"163":-0.25513654947280884,"164":0.27254825830459595,"165":0.20440080761909485,"166":0.25797930359840393,"167":-0.21131479740142822,"168":0.25068265199661255,"169":0.1296972632408142,"170":0.5350338816642761,"171":-0.16942167282104492,"172":0.11556760966777802,"173":0.22221563756465912,"174":-0.25904327630996704,"175":-0.16844041645526886,"176":0.24212011694908142,"177":-0.22998568415641785,"178":-0.14358694851398468,"179":0.13188771903514862,"180":0.3313961327075958,"181":0.16554227471351624,"182":-0.18944022059440613,"183":-0.28812548518180847,"184":0.3003864288330078,"185":0.3101010322570801,"186":0.3123320937156677,"187":0.21899303793907166,"188":-0.19935977458953857,"189":-0.13001255691051483,"190":0.5631450414657593,"191":0.26313889026641846,"192":-0.25977957248687744,"193":0.15447542071342468,"194":-0.1698695719242096,"195":-0.18869249522686005,"196":0.19706296920776367,"197":-0.2452370971441269,"198":0.07700157165527344,"199":-0.37099677324295044,"200":-1.187472939491272,"201":-0.14764073491096497,"202":-0.33804211020469666,"203":1.5455286502838135,"204":1.322495698928833,"205":-0.962347149848938,"206":-1.2592780590057373,"207":0.5423166751861572,"208":-0.5172030925750732,"209":-0.5065628886222839,"210":-0.6187878251075745,"211":0.2942945659160614,"212":-0.44146955013275146,"213":-0.0504351444542408,"214":0.06804411113262177,"215":-0.018634282052516937,"216":-0.04074207320809364,"217":-3.342285394668579,"218":0.44265010952949524,"219":-0.07026471942663193,"220":0.2845270037651062,"221":0.13312064111232758,"222":-0.2567974328994751,"223":-0.26955246925354004,"224":0.20117145776748657,"225":0.2191292941570282,"226":0.3049549460411072,"227":0.22826240956783295,"228":0.21165388822555542,"229":0.1703307032585144,"230":0.515167236328125,"231":0.02332024835050106,"232":-0.2666410207748413,"233":0.1805785447359085,"234":-0.1979162096977234,"235":-0.2691284120082855,"236":0.22651685774326324,"237":-0.27193737030029297,"238":-0.18777425587177277,"239":0.18336451053619385,"240":0.32691138982772827,"241":0.18087096512317657,"242":-0.24063023924827576,"243":-0.13165247440338135,"244":0.13975799083709717,"245":0.21462027728557587,"246":0.17884953320026398,"247":0.07040362060070038,"248":-0.0011528830509632826,"249":0.027415061369538307,"250":0.386370986700058,"251":0.1132349893450737,"252":-0.06510711461305618,"253":0.12094976007938385,"254":-0.12282268702983856,"255":-0.1324913054704666,"256":0.21133126318454742,"257":-0.2613372802734375,"258":0.0386769101023674,"259":-0.11991733312606812,"260":-0.013429870828986168,"261":-0.08905866742134094,"262":0.12134096026420593,"263":0.09984628856182098,"264":-0.0927356630563736,"265":-0.0062800622545182705,"266":-0.051618363708257675,"267":0.1610034555196762,"268":-0.15049687027931213,"269":-0.09593707323074341,"270":0.029301993548870087,"271":0.17069824039936066,"272":-0.10678137838840485,"273":-0.0637335404753685,"274":0.010958987288177013,"275":0.0015863629523664713,"276":-0.012800196185708046,"277":-0.008877672255039215,"278":0.07194189727306366,"279":-0.19551073014736176,"280":-0.11696186661720276,"281":-0.035862233489751816,"282":0.10056871920824051,"283":0.0370023287832737,"284":-0.12257091701030731,"285":-0.03772469237446785,"286":-0.050005823373794556,"287":0.1808793544769287,"288":-0.2144254446029663,"289":-0.13745592534542084,"290":-0.10265455394983292,"291":0.10151055455207825,"292":-0.14011088013648987,"293":-0.06411633640527725,"294":0.1085510104894638,"295":0.0286431722342968,"296":-0.08678438514471054,"297":0.034817393869161606,"298":0.1557558923959732,"299":-0.12943249940872192,"300":-0.02132730931043625,"301":-0.08293087780475616,"302":0.05744437128305435,"303":0.12210354208946228,"304":-0.043140944093465805,"305":-0.08727225661277771,"306":-0.028380321338772774,"307":0.19220173358917236,"308":-0.23397892713546753,"309":-0.17499083280563354,"310":-0.0909210816025734,"311":0.1633036732673645,"312":-0.055538974702358246,"313":-0.11844753473997116,"314":0.10503382980823517,"315":-0.0005038021481595933,"316":-0.09200313687324524,"317":0.10038556903600693,"318":0.08956311643123627,"319":-0.12970884144306183,"320":-0.07180475443601608,"321":-0.07399727404117584,"322":0.04223506152629852,"323":0.0428289994597435,"324":-0.11817651987075806,"325":-0.06943155080080032,"326":-0.10252165049314499,"327":0.1186809241771698,"328":-0.23688696324825287,"329":-0.13982807099819183,"330":-0.035185057669878006,"331":0.13790263235569,"332":-0.09827420115470886,"333":0.009120534174144268,"334":-0.0038400841876864433,"335":0.12671123445034027,"336":-0.12041303515434265,"337":0.10703057795763016,"338":0.21778181195259094,"339":-0.18859805166721344,"340":0.48553699254989624,"341":-0.09215447306632996,"342":0.1607540398836136,"343":0.11248444020748138,"344":-0.7231316566467285,"345":-0.027344541624188423,"346":0.5171794891357422,"347":0.2094750553369522,"348":-0.16241717338562012,"349":-0.21056093275547028,"350":0.3018219769001007,"351":0.2522481381893158,"352":-0.11000009626150131,"353":-0.05716296657919884,"354":0.030665550380945206,"355":0.0351569764316082,"356":-0.09658084064722061,"357":-0.7329326868057251,"358":0.1510131061077118,"359":0.4552351236343384,"360":0.33724966645240784,"361":0.22999899089336395,"362":-0.215790793299675,"363":-0.2759106457233429,"364":0.2732987701892853,"365":0.27210983633995056,"366":0.2216607928276062,"367":2.462161064147949,"368":13.483665466308594,"369":13.433589935302734,"370":0.45762142539024353,"371":2.4243807792663574,"372":-2.4603817462921143,"373":0.27197837829589844,"374":-0.13915613293647766,"375":-0.20430853962898254,"376":0.2672360837459564,"377":-0.23550373315811157,"378":-2.769742965698242,"379":5.190506935119629,"380":0.3021639585494995,"381":0.1677125096321106,"382":-0.25889188051223755,"383":-0.31748393177986145,"384":0.24309416115283966,"385":0.3148043751716614,"386":0.34157702326774597,"387":2.0554468631744385,"388":11.013463973999023,"389":11.054588317871094,"390":0.605000376701355,"391":1.8443702459335327,"392":-2.093348741531372,"393":0.25785645842552185,"394":-0.27914172410964966,"395":-0.2018628865480423,"396":0.1925002932548523,"397":-0.2633220851421356,"398":-1.7358518838882446,"399":3.87491512298584}},"forgetBias":{"rows":20,"columns":1,"weights":{"0":0,"1":0,"2":0,"3":0,"4":0,"5":0,"6":0,"7":0,"8":0,"9":0,"10":0,"11":0,"12":0,"13":0,"14":0,"15":0,"16":0,"17":0,"18":0,"19":0}},"outputMatrix":{"rows":20,"columns":1,"weights":{"0":0.2766358256340027,"1":-0.5360018014907837,"2":0.39418625831604004,"3":-0.2611103057861328,"4":0.10422489792108536,"5":-0.09874021261930466,"6":0.3432137966156006,"7":-0.5426433086395264,"8":-0.530694842338562,"9":-0.6432622671127319,"10":0.5200038552284241,"11":-0.4949844479560852,"12":-0.32539206743240356,"13":-0.6325891017913818,"14":-0.589235782623291,"15":-0.5407245755195618,"16":-0.49980542063713074,"17":0.2794795036315918,"18":-0.4528740644454956,"19":0.3291913568973541}},"outputHidden":{"rows":20,"columns":20,"weights":{"0":-0.18115903437137604,"1":-0.29186171293258667,"2":0.11245027184486389,"3":-0.07554001361131668,"4":-1.4975712299346924,"5":0.31562384963035583,"6":-0.25852736830711365,"7":0.36987999081611633,"8":-0.09514942020177841,"9":-0.2571478486061096,"10":1.02475905418396,"11":0.05300488322973251,"12":-0.24568402767181396,"13":-0.2493896484375,"14":0.3373069763183594,"15":0.23037052154541016,"16":-0.2244591861963272,"17":-0.0012245159596204758,"18":0.3639376163482666,"19":2.0321481227874756,"20":-0.18141433596611023,"21":-0.16972768306732178,"22":0.226949542760849,"23":0.15987922251224518,"24":-0.2846730649471283,"25":-0.25300177931785583,"26":-0.2751023471355438,"27":0.3672824203968048,"28":-0.3255022466182709,"29":-0.29598408937454224,"30":-0.1477309614419937,"31":0.22284558415412903,"32":-0.2687557339668274,"33":-0.23132818937301636,"34":0.1643604338169098,"35":0.1372164487838745,"36":-0.19884108006954193,"37":0.20895637571811676,"38":0.24208784103393555,"39":-0.2671515941619873,"40":-0.2872922122478485,"41":-0.18114769458770752,"42":0.19301989674568176,"43":0.16364791989326477,"44":-0.279561311006546,"45":-0.13810333609580994,"46":-0.29174110293388367,"47":0.31212368607521057,"48":-0.2978813648223877,"49":-0.2806829810142517,"50":-0.12256693840026855,"51":0.31991004943847656,"52":-0.215643972158432,"53":-0.3061215281486511,"54":0.24267005920410156,"55":0.3131355941295624,"56":-0.2978630065917969,"57":0.296017587184906,"58":0.2864207923412323,"59":-0.361936092376709,"60":-1.2404706478118896,"61":-0.29051467776298523,"62":3.074876546859741,"63":1.1951236724853516,"64":0.07880788296461105,"65":-1.00808584690094,"66":-1.2423676252365112,"67":0.23791316151618958,"68":-0.2848760783672333,"69":-0.307975709438324,"70":-3.7396440505981445,"71":0.2568836510181427,"72":-0.35366371273994446,"73":-0.292265921831131,"74":0.3287894129753113,"75":0.26616305112838745,"76":-0.28324317932128906,"77":1.219672679901123,"78":0.3314669728279114,"79":5.1859846115112305,"80":0.3735438585281372,"81":-0.22416767477989197,"82":0.993506133556366,"83":-2.0113303661346436,"84":-0.851336658000946,"85":2.235940456390381,"86":0.4799664318561554,"87":0.29102975130081177,"88":-0.2630184292793274,"89":-0.33336785435676575,"90":2.182793140411377,"91":0.26839351654052734,"92":-0.23294703662395477,"93":-0.20281349122524261,"94":0.2915034890174866,"95":0.2191910743713379,"96":-0.27058565616607666,"97":-0.7232868075370789,"98":0.2630753219127655,"99":-0.4716234505176544,"100":-2.2898998260498047,"101":-0.3204345107078552,"102":4.308200836181641,"103":1.7704263925552368,"104":-0.09688850492238998,"105":-2.139986038208008,"106":-2.2202718257904053,"107":0.3105858266353607,"108":-0.3167807459831238,"109":-0.34697163105010986,"110":-4.610436916351318,"111":0.27692723274230957,"112":-0.2852364778518677,"113":-0.2100711464881897,"114":0.25384655594825745,"115":0.19255772233009338,"116":-0.1862029880285263,"117":2.1526241302490234,"118":0.34126392006874084,"119":5.243869304656982,"120":0.10670003294944763,"121":-0.30449792742729187,"122":-0.7210049629211426,"123":-0.2835690677165985,"124":-1.6380535364151,"125":0.7915006279945374,"126":-0.06411231309175491,"127":0.27732422947883606,"128":-0.10000888258218765,"129":-0.21972794830799103,"130":1.0537394285202026,"131":-0.07468000799417496,"132":-0.19423379004001617,"133":-0.2794046401977539,"134":0.2302158623933792,"135":0.28125303983688354,"136":-0.3300212621688843,"137":-0.349022775888443,"138":0.35761532187461853,"139":1.7947182655334473,"140":0.3309185206890106,"141":0.22112616896629333,"142":-0.2287980169057846,"143":-0.2231990396976471,"144":0.27989661693573,"145":0.31951072812080383,"146":0.3517036437988281,"147":0.5335646867752075,"148":-1.2028133869171143,"149":0.13252770900726318,"150":0.8507665395736694,"151":0.2794526517391205,"152":-0.16455814242362976,"153":0.2914504408836365,"154":-0.2466905266046524,"155":-0.22192524373531342,"156":0.24839964509010315,"157":-0.27867209911346436,"158":0.02271495759487152,"159":-0.9191617965698242,"160":0.5335051417350769,"161":0.19940529763698578,"162":-0.19743628799915314,"163":-0.3100544214248657,"164":0.24342064559459686,"165":0.2820498049259186,"166":0.7809008955955505,"167":0.5033156275749207,"168":-0.764466404914856,"169":-0.4123777151107788,"170":1.142211675643921,"171":0.831592857837677,"172":-0.7371323108673096,"173":0.2795402407646179,"174":-0.21216614544391632,"175":-0.28649646043777466,"176":0.257076233625412,"177":-0.29989609122276306,"178":0.40863269567489624,"179":-1.1615817546844482,"180":0.3388120234012604,"181":0.2184125781059265,"182":-0.25770753622055054,"183":-0.3153819143772125,"184":0.2390139400959015,"185":0.3185887634754181,"186":0.3492298126220703,"187":-0.25453177094459534,"188":0.14274080097675323,"189":0.2385845184326172,"190":0.9115468263626099,"191":-0.255048543214798,"192":0.1928355097770691,"193":0.27539387345314026,"194":-0.194827139377594,"195":-0.22998960316181183,"196":0.26558396220207214,"197":-0.34472206234931946,"198":-0.24603889882564545,"199":0.09257069230079651,"200":-1.4664486646652222,"201":-0.3357169032096863,"202":0.20355282723903656,"203":0.3351600170135498,"204":-0.0036224983632564545,"205":-0.26463890075683594,"206":-1.4205137491226196,"207":0.5487496256828308,"208":-0.22549615800380707,"209":-0.466993510723114,"210":-0.3069886267185211,"211":0.21967287361621857,"212":-0.4129897952079773,"213":-0.3133755028247833,"214":0.26290422677993774,"215":0.24995578825473785,"216":-0.14259548485279083,"217":0.6733185648918152,"218":0.5633237957954407,"219":-0.3442317843437195,"220":0.6894890069961548,"221":0.19547830522060394,"222":-0.20069678127765656,"223":-0.2673862874507904,"224":0.7039463520050049,"225":0.327001690864563,"226":0.6736748218536377,"227":0.5030673146247864,"228":1.6825876235961914,"229":0.46161091327667236,"230":1.4481492042541504,"231":-5.026159763336182,"232":2.628854513168335,"233":0.25471970438957214,"234":-0.25645479559898376,"235":-0.2772517502307892,"236":0.3543930649757385,"237":0.13405686616897583,"238":-0.5632640719413757,"239":4.074521541595459,"240":0.6182993054389954,"241":0.15298786759376526,"242":-0.26701414585113525,"243":-0.2560487985610962,"244":0.2633810043334961,"245":0.3284814953804016,"246":0.6188512444496155,"247":-0.06558869779109955,"248":-0.10227140039205551,"249":-0.04345281422138214,"250":1.2982633113861084,"251":-4.811761856079102,"252":1.8803259134292603,"253":0.27910688519477844,"254":-0.15711171925067902,"255":-0.31673869490623474,"256":0.2748700976371765,"257":-0.33492428064346313,"258":0.24082541465759277,"259":0.9496925473213196,"260":-0.2818463444709778,"261":-0.22390447556972504,"262":0.22402362525463104,"263":0.2843891680240631,"264":-0.22340330481529236,"265":-0.2653738558292389,"266":-0.21578384935855865,"267":0.29837873578071594,"268":-0.2734842896461487,"269":-0.32364922761917114,"270":-0.2543816864490509,"271":0.2567835748195648,"272":-0.2190607786178589,"273":-0.2195226401090622,"274":0.17465341091156006,"275":0.2704777717590332,"276":-0.17396102845668793,"277":0.19259585440158844,"278":0.27561235427856445,"279":-0.28559279441833496,"280":-0.23157243430614471,"281":-0.16747254133224487,"282":0.2965097725391388,"283":0.26092228293418884,"284":-0.3275466561317444,"285":-0.22654452919960022,"286":-0.29216891527175903,"287":0.22256337106227875,"288":-0.34303614497184753,"289":-0.32043537497520447,"290":-0.26474007964134216,"291":0.3448570966720581,"292":-0.25331830978393555,"293":-0.21349197626113892,"294":0.24839787185192108,"295":0.2738991975784302,"296":-0.17924928665161133,"297":0.19756166636943817,"298":0.23052889108657837,"299":-0.29343941807746887,"300":-0.3048798739910126,"301":-0.28138259053230286,"302":0.23683303594589233,"303":0.2616175413131714,"304":-0.2845323085784912,"305":-0.2211628407239914,"306":-0.22865913808345795,"307":0.23168590664863586,"308":-0.3074267506599426,"309":-0.36402052640914917,"310":-0.15524286031723022,"311":0.35414040088653564,"312":-0.23687201738357544,"313":-0.2504197955131531,"314":0.24431762099266052,"315":0.22086575627326965,"316":-0.21034787595272064,"317":0.25270023941993713,"318":0.28068098425865173,"319":-0.2479436993598938,"320":-0.19766704738140106,"321":-0.2676555812358856,"322":0.23978839814662933,"323":0.18099573254585266,"324":-0.22351180016994476,"325":-0.2102399617433548,"326":-0.3365238904953003,"327":0.23470771312713623,"328":-0.24482057988643646,"329":-0.36146122217178345,"330":-0.16137555241584778,"331":0.29281580448150635,"332":-0.2535763382911682,"333":-0.2594703733921051,"334":0.237246572971344,"335":0.20989350974559784,"336":-0.18401677906513214,"337":0.2546362578868866,"338":0.3057195842266083,"339":-0.3077886402606964,"340":0.47728216648101807,"341":-0.2563117444515228,"342":2.784389019012451,"343":-0.11673275381326675,"344":-1.5387465953826904,"345":-0.011987151578068733,"346":0.3122897148132324,"347":0.3606780171394348,"348":-0.23683138191699982,"349":-0.33655986189842224,"350":1.341005563735962,"351":0.3239862024784088,"352":-0.26124194264411926,"353":-0.3282322883605957,"354":0.2483205497264862,"355":0.25772684812545776,"356":-0.30387061834335327,"357":-0.06912324577569962,"358":0.3235851228237152,"359":0.9090310335159302,"360":0.5108287930488586,"361":0.25226321816444397,"362":-0.20528200268745422,"363":-0.28133082389831543,"364":0.2778792679309845,"365":0.28023242950439453,"366":0.3922588527202606,"367":0.5071467757225037,"368":-0.6237179636955261,"369":-0.3596290349960327,"370":0.9557149410247803,"371":0.5245621204376221,"372":-0.5585881471633911,"373":0.28238698840141296,"374":-0.2852725684642792,"375":-0.2768806517124176,"376":0.2666865885257721,"377":-0.3100822865962982,"378":0.4213619530200958,"379":-0.5316193103790283,"380":1.5946598052978516,"381":0.20364519953727722,"382":-0.3501664102077484,"383":-1.2551326751708984,"384":-1.835226058959961,"385":0.3152453899383545,"386":1.6148470640182495,"387":0.2906363606452942,"388":-0.7927690148353577,"389":-0.15915754437446594,"390":3.0986971855163574,"391":-0.5462374687194824,"392":0.3528987765312195,"393":0.2821832001209259,"394":-0.28211620450019836,"395":-0.3087570369243622,"396":0.3091309368610382,"397":-0.942539632320404,"398":0.36978280544281006,"399":0.4324541687965393}},"outputBias":{"rows":20,"columns":1,"weights":{"0":-1.0762146711349487,"1":-0.46978098154067993,"2":1.3737339973449707,"3":0.25049275159835815,"4":-5.687747955322266,"5":0.1706036627292633,"6":-2.503199338912964,"7":-1.4481641054153442,"8":-0.7783988118171692,"9":-0.3373313248157501,"10":3.4438796043395996,"11":-3.1832549571990967,"12":-4.240592002868652,"13":-0.4447266459465027,"14":-0.418280690908432,"15":-0.30300310254096985,"16":-0.2743447422981262,"17":-1.232487678527832,"18":-1.1008065938949585,"19":3.770843505859375}},"cellActivationMatrix":{"rows":20,"columns":1,"weights":{"0":-0.12847773730754852,"1":0.09920553117990494,"2":0.5716209411621094,"3":0.6181337833404541,"4":-0.021579092368483543,"5":-0.48142582178115845,"6":-0.22123272716999054,"7":-0.5713080167770386,"8":0.556524395942688,"9":0.5512139201164246,"10":-0.566437304019928,"11":-0.5247335433959961,"12":0.5049587488174438,"13":0.08740857988595963,"14":-0.11111341416835785,"15":0.05383952334523201,"16":-0.08963639289140701,"17":0.6165629625320435,"18":-0.5445322394371033,"19":0.011833528988063335}},"cellActivationHidden":{"rows":20,"columns":20,"weights":{"0":-0.2811530828475952,"1":-0.29862603545188904,"2":-0.24051927030086517,"3":0.08686625957489014,"4":0.04302826151251793,"5":-0.05492547154426575,"6":-0.24983380734920502,"7":0.13720054924488068,"8":-0.179077610373497,"9":-0.2474393993616104,"10":-0.22695927321910858,"11":-0.04525124281644821,"12":-0.2997438609600067,"13":-0.28566139936447144,"14":0.2217843383550644,"15":0.24456512928009033,"16":-0.2648310661315918,"17":0.3011898100376129,"18":0.17296922206878662,"19":-1.2178829908370972,"20":-0.43461790680885315,"21":-0.3941175043582916,"22":0.34980183839797974,"23":0.4154112637042999,"24":-0.27349337935447693,"25":-0.381149560213089,"26":-0.3270280361175537,"27":0.043432243168354034,"28":0.008095208555459976,"29":-0.1302449107170105,"30":-0.2975333034992218,"31":0.13470123708248138,"32":-0.23664015531539917,"33":-0.3746500313282013,"34":0.3709130883216858,"35":0.3290998041629791,"36":-0.3094441890716553,"37":0.3166045844554901,"38":0.16201339662075043,"39":-0.056809499859809875,"40":0.3968716561794281,"41":0.2844770848751068,"42":-0.28669270873069763,"43":-0.34479090571403503,"44":0.28034716844558716,"45":0.30792132019996643,"46":0.28979894518852234,"47":-0.051348380744457245,"48":0.08579094707965851,"49":0.16181161999702454,"50":0.31467437744140625,"51":-0.19537734985351562,"52":0.22837376594543457,"53":0.42215245962142944,"54":-0.36653900146484375,"55":-0.3379165530204773,"56":0.32569482922554016,"57":-0.36165866255760193,"58":-0.1599435806274414,"59":0.12265991419553757,"60":0.0853196308016777,"61":0.30084648728370667,"62":-0.326552152633667,"63":-0.1816149801015854,"64":0.507673442363739,"65":0.39771202206611633,"66":0.049949001520872116,"67":-0.11218336969614029,"68":0.08688929677009583,"69":0.06874055415391922,"70":0.0747745931148529,"71":-0.14578863978385925,"72":0.22691158950328827,"73":0.32492315769195557,"74":-0.32239407300949097,"75":-0.3953875005245209,"76":0.3786156475543976,"77":-0.04552333801984787,"78":-0.19377721846103668,"79":0.14021159708499908,"80":0.18739213049411774,"81":-0.4157065749168396,"82":0.5679516196250916,"83":-1.337544322013855,"84":-0.9049842357635498,"85":0.9693530797958374,"86":0.2483891397714615,"87":0.11700524389743805,"88":-0.025824187323451042,"89":-0.15076369047164917,"90":3.1674304008483887,"91":0.1955537497997284,"92":-0.2746865153312683,"93":-0.41496986150741577,"94":0.3957821726799011,"95":0.3904576301574707,"96":-0.3655434548854828,"97":-0.21652156114578247,"98":0.1419668197631836,"99":1.5317938327789307,"100":0.018926188349723816,"101":-0.2562353014945984,"102":0.3456268310546875,"103":0.0023376671597361565,"104":-0.6196914911270142,"105":-0.19480589032173157,"106":0.06689156591892242,"107":0.2606376111507416,"108":-0.24001668393611908,"109":-0.17658139765262604,"110":0.0849199891090393,"111":0.289288192987442,"112":-0.24157585203647614,"113":-0.32310593128204346,"114":0.339560329914093,"115":0.2573920786380768,"116":-0.3290712833404541,"117":-0.03179553151130676,"118":0.16877654194831848,"119":-0.4674108028411865,"120":-0.6477237939834595,"121":-0.28286856412887573,"122":-0.4457186460494995,"123":0.5227882266044617,"124":0.13131949305534363,"125":-0.5676363706588745,"126":-0.543312668800354,"127":0.15831980109214783,"128":-0.15274152159690857,"129":-0.1492581069469452,"130":-1.0085331201553345,"131":0.17508043348789215,"132":-0.182831808924675,"133":-0.2427232563495636,"134":0.2630198895931244,"135":0.2878466546535492,"136":-0.3633437156677246,"137":0.5931365489959717,"138":0.2383187711238861,"139":-1.0025187730789185,"140":-0.21480736136436462,"141":-0.1116095706820488,"142":0.26130563020706177,"143":0.26734647154808044,"144":-0.3222734332084656,"145":-0.16934114694595337,"146":-0.32847318053245544,"147":0.2719918489456177,"148":-0.3671707510948181,"149":-0.30891838669776917,"150":-0.2345300018787384,"151":0.3556271493434906,"152":-0.2255496233701706,"153":-0.11990015208721161,"154":0.2643296420574188,"155":0.19878718256950378,"156":-0.16062656044960022,"157":0.26605433225631714,"158":0.3463115394115448,"159":-0.3125722408294678,"160":0.17240992188453674,"161":0.09407807141542435,"162":-0.09091851860284805,"163":-0.11331192404031754,"164":0.2366887331008911,"165":0.03174467757344246,"166":0.31675541400909424,"167":-0.38668081164360046,"168":0.46030786633491516,"169":0.39135658740997314,"170":0.2522694766521454,"171":-0.3810165226459503,"172":0.34127649664878845,"173":0.11388528347015381,"174":-0.08114685863256454,"175":-0.11971279978752136,"176":0.02928623929619789,"177":-0.2121511548757553,"178":-0.4348779618740082,"179":0.333019495010376,"180":0.18240803480148315,"181":0.08550453931093216,"182":-0.1800345778465271,"183":-0.14796629548072815,"184":0.2841129004955292,"185":0.12899550795555115,"186":0.3231279253959656,"187":-0.43259111046791077,"188":0.3743045926094055,"189":0.43128782510757446,"190":0.27747368812561035,"191":-0.31528493762016296,"192":0.2654602825641632,"193":0.13848911225795746,"194":-0.14106260240077972,"195":-0.12059803307056427,"196":0.06710551679134369,"197":-0.21003374457359314,"198":-0.34331056475639343,"199":0.42400801181793213,"200":-0.3395867347717285,"201":-0.3156287372112274,"202":0.30772650241851807,"203":0.260903537273407,"204":-0.32371583580970764,"205":-0.23857353627681732,"206":-0.2571457624435425,"207":0.2512458264827728,"208":-0.22690564393997192,"209":-0.2485216110944748,"210":-0.4902021288871765,"211":0.3027823567390442,"212":-0.22406794130802155,"213":-0.28831779956817627,"214":0.3343982994556427,"215":0.3301433026790619,"216":-0.32158342003822327,"217":0.2831811010837555,"218":0.3004397451877594,"219":-0.20744109153747559,"220":-0.21939273178577423,"221":-0.15339329838752747,"222":0.2204083502292633,"223":0.20571883022785187,"224":-0.24593648314476013,"225":-0.10141859203577042,"226":-0.1951083540916443,"227":0.3992433249950409,"228":-0.4186057448387146,"229":-0.4091097414493561,"230":-0.2609449326992035,"231":0.3138026297092438,"232":-0.3296695649623871,"233":-0.1698058396577835,"234":0.22006157040596008,"235":0.0568544864654541,"236":-0.16792169213294983,"237":0.14763624966144562,"238":0.4166812300682068,"239":-0.4074089825153351,"240":0.2337985634803772,"241":0.22542959451675415,"242":-0.24055838584899902,"243":-0.31057098507881165,"244":0.3097778558731079,"245":0.2316981554031372,"246":0.3469789922237396,"247":-0.2563280463218689,"248":0.29397737979888916,"249":0.28950148820877075,"250":0.3191900849342346,"251":-0.2746528089046478,"252":0.17962495982646942,"253":0.2933480441570282,"254":-0.2855058014392853,"255":-0.17693780362606049,"256":0.24407726526260376,"257":-0.30004000663757324,"258":-0.20783424377441406,"259":0.24600481986999512,"260":-0.32126346230506897,"261":-0.4215708374977112,"262":0.2813291847705841,"263":0.315277636051178,"264":-0.23316054046154022,"265":-0.31004902720451355,"266":-0.29485511779785156,"267":0.09522616118192673,"268":-0.005620184354484081,"269":-0.034846462309360504,"270":-0.327749639749527,"271":0.057226695120334625,"272":-0.1751670241355896,"273":-0.41904914379119873,"274":0.3290563225746155,"275":0.38999414443969727,"276":-0.360180526971817,"277":0.382590651512146,"278":0.11209077388048172,"279":-0.12498477846384048,"280":0.34395453333854675,"281":0.3904988467693329,"282":-0.3201656937599182,"283":-0.2948811948299408,"284":0.31482717394828796,"285":0.39693760871887207,"286":0.3300638496875763,"287":0.004868704825639725,"288":0.04320724681019783,"289":0.10523812472820282,"290":0.30513492226600647,"291":-0.05213163420557976,"292":0.23383715748786926,"293":0.42229515314102173,"294":-0.313808798789978,"295":-0.3892970681190491,"296":0.3336735963821411,"297":-0.3137778639793396,"298":-0.16102421283721924,"299":0.15539546310901642,"300":0.28914493322372437,"301":0.3639771640300751,"302":-0.33756202459335327,"303":-0.306730717420578,"304":0.257051020860672,"305":0.29537081718444824,"306":0.33060941100120544,"307":-0.14753982424736023,"308":0.07503330707550049,"309":0.20150382816791534,"310":0.22294819355010986,"311":-0.14525996148586273,"312":0.22330915927886963,"313":0.2984083592891693,"314":-0.36020201444625854,"315":-0.3356601595878601,"316":0.3163234293460846,"317":-0.3326573073863983,"318":-0.24038445949554443,"319":0.10178585350513458,"320":-0.3286987245082855,"321":-0.25888070464134216,"322":0.3265843987464905,"323":0.3431398868560791,"324":-0.3186895549297333,"325":-0.39269739389419556,"326":-0.2442760020494461,"327":0.10349269211292267,"328":-0.10768540948629379,"329":-0.22590850293636322,"330":-0.29366761445999146,"331":0.14034895598888397,"332":-0.2872580885887146,"333":-0.26149609684944153,"334":0.24968546628952026,"335":0.2920612096786499,"336":-0.29555708169937134,"337":0.2721897065639496,"338":0.2384604811668396,"339":-0.18507064878940582,"340":0.27605998516082764,"341":0.37012726068496704,"342":-0.3657437562942505,"343":-0.2546306550502777,"344":0.3122861087322235,"345":0.34115874767303467,"346":0.13442406058311462,"347":-0.1347854733467102,"348":0.16995969414710999,"349":0.17104606330394745,"350":0.17513568699359894,"351":-0.21568235754966736,"352":0.1734371781349182,"353":0.3074948787689209,"354":-0.22803626954555511,"355":-0.3140535056591034,"356":0.38497045636177063,"357":-0.3503691256046295,"358":-0.16941043734550476,"359":0.1137036383152008,"360":-0.2981216609477997,"361":-0.2503191828727722,"362":0.22113923728466034,"363":0.1533781886100769,"364":-0.3320869505405426,"365":-0.2482796311378479,"366":-0.33542731404304504,"367":0.2993229031562805,"368":-0.40220755338668823,"369":-0.3134367763996124,"370":-0.3271619379520416,"371":0.27723178267478943,"372":-0.3112368583679199,"373":-0.24676620960235596,"374":0.19939623773097992,"375":0.16879351437091827,"376":-0.16780617833137512,"377":0.2854098081588745,"378":0.22884121537208557,"379":-0.35276398062705994,"380":0.3308589458465576,"381":0.10591857135295868,"382":0.05831259489059448,"383":-2.7739810943603516,"384":0.13606947660446167,"385":1.1038219928741455,"386":0.568971574306488,"387":-0.47793900966644287,"388":0.4060541093349457,"389":0.450203001499176,"390":0.43149861693382263,"391":-0.7305231094360352,"392":0.34340140223503113,"393":0.07930812239646912,"394":-0.19689039885997772,"395":-0.13021589815616608,"396":0.13646486401557922,"397":-0.06522679328918457,"398":-0.36274051666259766,"399":-0.1955055296421051}},"cellActivationBias":{"rows":20,"columns":1,"weights":{"0":0.5781234502792358,"1":-0.07849914580583572,"2":0.2709856927394867,"3":0.4861997663974762,"4":1.3362441062927246,"5":-0.5759909749031067,"6":1.8981963396072388,"7":-0.4879963994026184,"8":0.504543125629425,"9":0.4957592785358429,"10":-0.8881781697273254,"11":-0.4808119535446167,"12":0.42872631549835205,"13":-0.14429549872875214,"14":0.11777709424495697,"15":0.2217695564031601,"16":-0.22629070281982422,"17":0.3093903362751007,"18":-0.4713174104690552,"19":0.29841724038124084}}}],"outputConnector":{"rows":1,"columns":20,"weights":{"0":-15.150185585021973,"1":0.005954916123300791,"2":-2.155604362487793,"3":-4.009306907653809,"4":11.492623329162598,"5":5.843884468078613,"6":-14.916653633117676,"7":-2.276632308959961,"8":1.7982168197631836,"9":1.9814257621765137,"10":5.309483528137207,"11":-10.871113777160645,"12":1.1917858123779297,"13":0.008590052835643291,"14":-0.029171878471970558,"15":0.015701014548540115,"16":0.0321822389960289,"17":14.76027774810791,"18":-2.673658847808838,"19":-6.508716106414795}},"output":{"rows":1,"columns":1,"weights":{"0":24.684738159179688}}}